network unknown {
}
variable buying {
    type discrete [ 4 ] { high, low, med, vhigh };
}
variable car {
    type discrete [ 4 ] { acc, good, unacc, vgood };
}
variable lug_boot {
    type discrete [ 3 ] { big, med, small };
}
variable maint {
    type discrete [ 4 ] { high, low, med, vhigh };
}
variable persons {
    type discrete [ 3 ] { 2, 4, more };
}
variable safety {
    type discrete [ 3 ] { high, low, med };
}
probability ( buying | car, maint ) {
    ( acc, high ) 0.34258160237388724, 0.31409495548961425, 0.34258160237388724, 0.000741839762611276;
    ( acc, low ) 0.39082599864590384, 0.10917400135409613, 0.10917400135409613, 0.39082599864590384;
    ( acc, med ) 0.31287262872628724, 0.08739837398373984, 0.2868563685636856, 0.31287262872628724;
    ( acc, vhigh ) 0.00108038029386344, 0.4989196197061366, 0.4989196197061366, 0.00108038029386344;
    ( good, high ) 0.25, 0.25, 0.25, 0.25;
    ( good, low ) 0.0016869095816464238, 0.4983130904183536, 0.4983130904183536, 0.0016869095816464238;
    ( good, med ) 0.003351206434316354, 0.989946380697051, 0.003351206434316354, 0.003351206434316354;
    ( good, vhigh ) 0.25, 0.25, 0.25, 0.25;
    ( unacc, high ) 0.22931994432292702, 0.19750447405050706, 0.22931994432292702, 0.3438556373036389;
    ( unacc, low ) 0.2686349871884463, 0.2313650128115537, 0.2313650128115537, 0.2686349871884463;
    ( unacc, med ) 0.2686349871884463, 0.2313650128115537, 0.2313650128115537, 0.2686349871884463;
    ( unacc, vhigh ) 0.29995663486556806, 0.2000433651344319, 0.2000433651344319, 0.29995663486556806;
    ( vgood, high ) 0.005868544600938967, 0.9823943661971831, 0.005868544600938967, 0.005868544600938967;
    ( vgood, low ) 0.0029691211401425177, 0.4970308788598575, 0.4970308788598575, 0.0029691211401425177;
    ( vgood, med ) 0.0029691211401425177, 0.4970308788598575, 0.4970308788598575, 0.0029691211401425177;
    ( vgood, vhigh ) 0.25, 0.25, 0.25, 0.25;

}
probability ( car | lug_boot, persons, safety ) {
    ( big, 2, high ) 0.0007212925562608194, 0.0007212925562608194, 0.9978361223312175, 0.0007212925562608194;
    ( big, 2, low ) 0.0007212925562608194, 0.0007212925562608194, 0.9978361223312175, 0.0007212925562608194;
    ( big, 2, med ) 0.0007212925562608194, 0.0007212925562608194, 0.9978361223312175, 0.0007212925562608194;
    ( big, 4, high ) 0.49927870744373914, 0.0007212925562608193, 0.18768032313906519, 0.3123196768609348;
    ( big, 4, low ) 0.0007212925562608194, 0.0007212925562608194, 0.9978361223312175, 0.0007212925562608194;
    ( big, 4, med ) 0.6239180611656089, 0.1876803231390652, 0.1876803231390652, 0.0007212925562608194;
    ( big, more, high ) 0.49927870744373914, 0.0007212925562608193, 0.18768032313906519, 0.3123196768609348;
    ( big, more, low ) 0.0007212925562608194, 0.0007212925562608194, 0.9978361223312175, 0.0007212925562608194;
    ( big, more, med ) 0.6239180611656089, 0.1876803231390652, 0.1876803231390652, 0.0007212925562608194;
    ( med, 2, high ) 0.0007212925562608194, 0.0007212925562608194, 0.9978361223312175, 0.0007212925562608194;
    ( med, 2, low ) 0.0007212925562608194, 0.0007212925562608194, 0.9978361223312175, 0.0007212925562608194;
    ( med, 2, med ) 0.0007212925562608194, 0.0007212925562608194, 0.9978361223312175, 0.0007212925562608194;
    ( med, 4, high ) 0.5615983843046739, 0.094200807847663, 0.18768032313906519, 0.15652048470859778;
    ( med, 4, low ) 0.0007212925562608194, 0.0007212925562608194, 0.9978361223312175, 0.0007212925562608194;
    ( med, 4, med ) 0.4681188690132719, 0.09420080784766303, 0.43695903058280444, 0.0007212925562608194;
    ( med, more, high ) 0.5304385458742066, 0.04746105020196191, 0.18768032313906519, 0.23442008078476628;
    ( med, more, low ) 0.0007212925562608194, 0.0007212925562608194, 0.9978361223312175, 0.0007212925562608194;
    ( med, more, med ) 0.5460184650894404, 0.14094056549336412, 0.31231967686093487, 0.0007212925562608194;
    ( small, 2, high ) 0.0007212925562608194, 0.0007212925562608194, 0.9978361223312175, 0.0007212925562608194;
    ( small, 2, low ) 0.0007212925562608194, 0.0007212925562608194, 0.9978361223312175, 0.0007212925562608194;
    ( small, 2, med ) 0.0007212925562608194, 0.0007212925562608194, 0.9978361223312175, 0.0007212925562608194;
    ( small, 4, high ) 0.6239180611656089, 0.1876803231390652, 0.1876803231390652, 0.0007212925562608194;
    ( small, 4, low ) 0.0007212925562608194, 0.0007212925562608194, 0.9978361223312175, 0.0007212925562608194;
    ( small, 4, med ) 0.31231967686093487, 0.0007212925562608194, 0.6862377380265436, 0.0007212925562608194;
    ( small, more, high ) 0.4681188690132719, 0.14094056549336412, 0.39021927293710335, 0.0007212925562608194;
    ( small, more, low ) 0.0007212925562608194, 0.0007212925562608194, 0.9978361223312175, 0.0007212925562608194;
    ( small, more, med ) 0.23442008078476634, 0.0007212925562608194, 0.7641373341027122, 0.0007212925562608194;

}
probability ( lug_boot ) {
    table 0.3333333333333333, 0.3333333333333333, 0.3333333333333333 ;
}
probability ( maint | car ) {
    ( acc ) 0.27336145360155745, 0.23961713173264115, 0.2993186242699546, 0.18770279039584686;
    ( good ) 0.004448398576512456, 0.6592526690391459, 0.3318505338078292, 0.004448398576512456;
    ( unacc ) 0.2594943240454076, 0.22151702786377708, 0.22151702786377708, 0.29747162022703816;
    ( vgood ) 0.2009433962264151, 0.39716981132075474, 0.39716981132075474, 0.0047169811320754715;

}
probability ( persons ) {
    table 0.3333333333333333, 0.3333333333333333, 0.3333333333333333 ;
}
probability ( safety ) {
    table 0.3333333333333333, 0.3333333333333333, 0.3333333333333333 ;
}
