network unknown {
}
variable buying {
    type discrete [ 4 ] { high, low, med, vhigh };
}
variable car {
    type discrete [ 4 ] { acc, good, unacc, vgood };
}
variable doors {
    type discrete [ 4 ] { 2, 3, 4, 5more };
}
variable lug_boot {
    type discrete [ 3 ] { big, med, small };
}
variable maint {
    type discrete [ 4 ] { high, low, med, vhigh };
}
variable persons {
    type discrete [ 3 ] { 2, 4, more };
}
variable safety {
    type discrete [ 3 ] { high, low, med };
}
probability ( buying | car, doors, lug_boot, maint, persons, safety ) {
    ( acc, 2, big, high, 2, high ) 0.25, 0.25, 0.25, 0.25;
    ( acc, 2, big, high, 2, low ) 0.25, 0.25, 0.25, 0.25;
    ( acc, 2, big, high, 2, med ) 0.25, 0.25, 0.25, 0.25;
    ( acc, 2, big, high, 4, high ) 0.5, 0.0, 0.5, 0.0;
    ( acc, 2, big, high, 4, low ) 0.25, 0.25, 0.25, 0.25;
    ( acc, 2, big, high, 4, med ) 0.3333333333333333, 0.3333333333333333, 0.3333333333333333, 0.0;
    ( acc, 2, big, high, more, high ) 0.5, 0.0, 0.5, 0.0;
    ( acc, 2, big, high, more, low ) 0.25, 0.25, 0.25, 0.25;
    ( acc, 2, big, high, more, med ) 0.3333333333333333, 0.3333333333333333, 0.3333333333333333, 0.0;
    ( acc, 2, big, low, 2, high ) 0.25, 0.25, 0.25, 0.25;
    ( acc, 2, big, low, 2, low ) 0.25, 0.25, 0.25, 0.25;
    ( acc, 2, big, low, 2, med ) 0.25, 0.25, 0.25, 0.25;
    ( acc, 2, big, low, 4, high ) 0.5, 0.0, 0.0, 0.5;
    ( acc, 2, big, low, 4, low ) 0.25, 0.25, 0.25, 0.25;
    ( acc, 2, big, low, 4, med ) 0.5, 0.0, 0.0, 0.5;
    ( acc, 2, big, low, more, high ) 0.5, 0.0, 0.0, 0.5;
    ( acc, 2, big, low, more, low ) 0.25, 0.25, 0.25, 0.25;
    ( acc, 2, big, low, more, med ) 0.5, 0.0, 0.0, 0.5;
    ( acc, 2, big, med, 2, high ) 0.25, 0.25, 0.25, 0.25;
    ( acc, 2, big, med, 2, low ) 0.25, 0.25, 0.25, 0.25;
    ( acc, 2, big, med, 2, med ) 0.25, 0.25, 0.25, 0.25;
    ( acc, 2, big, med, 4, high ) 0.5, 0.0, 0.0, 0.5;
    ( acc, 2, big, med, 4, low ) 0.25, 0.25, 0.25, 0.25;
    ( acc, 2, big, med, 4, med ) 0.3333333333333333, 0.0, 0.3333333333333333, 0.3333333333333333;
    ( acc, 2, big, med, more, high ) 0.5, 0.0, 0.0, 0.5;
    ( acc, 2, big, med, more, low ) 0.25, 0.25, 0.25, 0.25;
    ( acc, 2, big, med, more, med ) 0.3333333333333333, 0.0, 0.3333333333333333, 0.3333333333333333;
    ( acc, 2, big, vhigh, 2, high ) 0.25, 0.25, 0.25, 0.25;
    ( acc, 2, big, vhigh, 2, low ) 0.25, 0.25, 0.25, 0.25;
    ( acc, 2, big, vhigh, 2, med ) 0.25, 0.25, 0.25, 0.25;
    ( acc, 2, big, vhigh, 4, high ) 0.0, 0.5, 0.5, 0.0;
    ( acc, 2, big, vhigh, 4, low ) 0.25, 0.25, 0.25, 0.25;
    ( acc, 2, big, vhigh, 4, med ) 0.0, 0.5, 0.5, 0.0;
    ( acc, 2, big, vhigh, more, high ) 0.0, 0.5, 0.5, 0.0;
    ( acc, 2, big, vhigh, more, low ) 0.25, 0.25, 0.25, 0.25;
    ( acc, 2, big, vhigh, more, med ) 0.0, 0.5, 0.5, 0.0;
    ( acc, 2, med, high, 2, high ) 0.25, 0.25, 0.25, 0.25;
    ( acc, 2, med, high, 2, low ) 0.25, 0.25, 0.25, 0.25;
    ( acc, 2, med, high, 2, med ) 0.25, 0.25, 0.25, 0.25;
    ( acc, 2, med, high, 4, high ) 0.3333333333333333, 0.3333333333333333, 0.3333333333333333, 0.0;
    ( acc, 2, med, high, 4, low ) 0.25, 0.25, 0.25, 0.25;
    ( acc, 2, med, high, 4, med ) 0.0, 1.0, 0.0, 0.0;
    ( acc, 2, med, high, more, high ) 0.3333333333333333, 0.3333333333333333, 0.3333333333333333, 0.0;
    ( acc, 2, med, high, more, low ) 0.25, 0.25, 0.25, 0.25;
    ( acc, 2, med, high, more, med ) 0.0, 1.0, 0.0, 0.0;
    ( acc, 2, med, low, 2, high ) 0.25, 0.25, 0.25, 0.25;
    ( acc, 2, med, low, 2, low ) 0.25, 0.25, 0.25, 0.25;
    ( acc, 2, med, low, 2, med ) 0.25, 0.25, 0.25, 0.25;
    ( acc, 2, med, low, 4, high ) 0.5, 0.0, 0.0, 0.5;
    ( acc, 2, med, low, 4, low ) 0.25, 0.25, 0.25, 0.25;
    ( acc, 2, med, low, 4, med ) 0.0, 0.5, 0.5, 0.0;
    ( acc, 2, med, low, more, high ) 0.5, 0.0, 0.0, 0.5;
    ( acc, 2, med, low, more, low ) 0.25, 0.25, 0.25, 0.25;
    ( acc, 2, med, low, more, med ) 0.0, 0.5, 0.5, 0.0;
    ( acc, 2, med, med, 2, high ) 0.25, 0.25, 0.25, 0.25;
    ( acc, 2, med, med, 2, low ) 0.25, 0.25, 0.25, 0.25;
    ( acc, 2, med, med, 2, med ) 0.25, 0.25, 0.25, 0.25;
    ( acc, 2, med, med, 4, high ) 0.3333333333333333, 0.0, 0.3333333333333333, 0.3333333333333333;
    ( acc, 2, med, med, 4, low ) 0.25, 0.25, 0.25, 0.25;
    ( acc, 2, med, med, 4, med ) 0.0, 0.5, 0.5, 0.0;
    ( acc, 2, med, med, more, high ) 0.3333333333333333, 0.0, 0.3333333333333333, 0.3333333333333333;
    ( acc, 2, med, med, more, low ) 0.25, 0.25, 0.25, 0.25;
    ( acc, 2, med, med, more, med ) 0.0, 0.5, 0.5, 0.0;
    ( acc, 2, med, vhigh, 2, high ) 0.25, 0.25, 0.25, 0.25;
    ( acc, 2, med, vhigh, 2, low ) 0.25, 0.25, 0.25, 0.25;
    ( acc, 2, med, vhigh, 2, med ) 0.25, 0.25, 0.25, 0.25;
    ( acc, 2, med, vhigh, 4, high ) 0.0, 0.5, 0.5, 0.0;
    ( acc, 2, med, vhigh, 4, low ) 0.25, 0.25, 0.25, 0.25;
    ( acc, 2, med, vhigh, 4, med ) 0.25, 0.25, 0.25, 0.25;
    ( acc, 2, med, vhigh, more, high ) 0.0, 0.5, 0.5, 0.0;
    ( acc, 2, med, vhigh, more, low ) 0.25, 0.25, 0.25, 0.25;
    ( acc, 2, med, vhigh, more, med ) 0.25, 0.25, 0.25, 0.25;
    ( acc, 2, small, high, 2, high ) 0.25, 0.25, 0.25, 0.25;
    ( acc, 2, small, high, 2, low ) 0.25, 0.25, 0.25, 0.25;
    ( acc, 2, small, high, 2, med ) 0.25, 0.25, 0.25, 0.25;
    ( acc, 2, small, high, 4, high ) 0.3333333333333333, 0.3333333333333333, 0.3333333333333333, 0.0;
    ( acc, 2, small, high, 4, low ) 0.25, 0.25, 0.25, 0.25;
    ( acc, 2, small, high, 4, med ) 0.0, 1.0, 0.0, 0.0;
    ( acc, 2, small, high, more, high ) 0.25, 0.25, 0.25, 0.25;
    ( acc, 2, small, high, more, low ) 0.25, 0.25, 0.25, 0.25;
    ( acc, 2, small, high, more, med ) 0.25, 0.25, 0.25, 0.25;
    ( acc, 2, small, low, 2, high ) 0.25, 0.25, 0.25, 0.25;
    ( acc, 2, small, low, 2, low ) 0.25, 0.25, 0.25, 0.25;
    ( acc, 2, small, low, 2, med ) 0.25, 0.25, 0.25, 0.25;
    ( acc, 2, small, low, 4, high ) 0.5, 0.0, 0.0, 0.5;
    ( acc, 2, small, low, 4, low ) 0.25, 0.25, 0.25, 0.25;
    ( acc, 2, small, low, 4, med ) 0.0, 0.5, 0.5, 0.0;
    ( acc, 2, small, low, more, high ) 0.25, 0.25, 0.25, 0.25;
    ( acc, 2, small, low, more, low ) 0.25, 0.25, 0.25, 0.25;
    ( acc, 2, small, low, more, med ) 0.25, 0.25, 0.25, 0.25;
    ( acc, 2, small, med, 2, high ) 0.25, 0.25, 0.25, 0.25;
    ( acc, 2, small, med, 2, low ) 0.25, 0.25, 0.25, 0.25;
    ( acc, 2, small, med, 2, med ) 0.25, 0.25, 0.25, 0.25;
    ( acc, 2, small, med, 4, high ) 0.3333333333333333, 0.0, 0.3333333333333333, 0.3333333333333333;
    ( acc, 2, small, med, 4, low ) 0.25, 0.25, 0.25, 0.25;
    ( acc, 2, small, med, 4, med ) 0.0, 0.5, 0.5, 0.0;
    ( acc, 2, small, med, more, high ) 0.25, 0.25, 0.25, 0.25;
    ( acc, 2, small, med, more, low ) 0.25, 0.25, 0.25, 0.25;
    ( acc, 2, small, med, more, med ) 0.25, 0.25, 0.25, 0.25;
    ( acc, 2, small, vhigh, 2, high ) 0.25, 0.25, 0.25, 0.25;
    ( acc, 2, small, vhigh, 2, low ) 0.25, 0.25, 0.25, 0.25;
    ( acc, 2, small, vhigh, 2, med ) 0.25, 0.25, 0.25, 0.25;
    ( acc, 2, small, vhigh, 4, high ) 0.0, 0.5, 0.5, 0.0;
    ( acc, 2, small, vhigh, 4, low ) 0.25, 0.25, 0.25, 0.25;
    ( acc, 2, small, vhigh, 4, med ) 0.25, 0.25, 0.25, 0.25;
    ( acc, 2, small, vhigh, more, high ) 0.25, 0.25, 0.25, 0.25;
    ( acc, 2, small, vhigh, more, low ) 0.25, 0.25, 0.25, 0.25;
    ( acc, 2, small, vhigh, more, med ) 0.25, 0.25, 0.25, 0.25;
    ( acc, 3, big, high, 2, high ) 0.25, 0.25, 0.25, 0.25;
    ( acc, 3, big, high, 2, low ) 0.25, 0.25, 0.25, 0.25;
    ( acc, 3, big, high, 2, med ) 0.25, 0.25, 0.25, 0.25;
    ( acc, 3, big, high, 4, high ) 0.5, 0.0, 0.5, 0.0;
    ( acc, 3, big, high, 4, low ) 0.25, 0.25, 0.25, 0.25;
    ( acc, 3, big, high, 4, med ) 0.3333333333333333, 0.3333333333333333, 0.3333333333333333, 0.0;
    ( acc, 3, big, high, more, high ) 0.5, 0.0, 0.5, 0.0;
    ( acc, 3, big, high, more, low ) 0.25, 0.25, 0.25, 0.25;
    ( acc, 3, big, high, more, med ) 0.3333333333333333, 0.3333333333333333, 0.3333333333333333, 0.0;
    ( acc, 3, big, low, 2, high ) 0.25, 0.25, 0.25, 0.25;
    ( acc, 3, big, low, 2, low ) 0.25, 0.25, 0.25, 0.25;
    ( acc, 3, big, low, 2, med ) 0.25, 0.25, 0.25, 0.25;
    ( acc, 3, big, low, 4, high ) 0.5, 0.0, 0.0, 0.5;
    ( acc, 3, big, low, 4, low ) 0.25, 0.25, 0.25, 0.25;
    ( acc, 3, big, low, 4, med ) 0.5, 0.0, 0.0, 0.5;
    ( acc, 3, big, low, more, high ) 0.5, 0.0, 0.0, 0.5;
    ( acc, 3, big, low, more, low ) 0.25, 0.25, 0.25, 0.25;
    ( acc, 3, big, low, more, med ) 0.5, 0.0, 0.0, 0.5;
    ( acc, 3, big, med, 2, high ) 0.25, 0.25, 0.25, 0.25;
    ( acc, 3, big, med, 2, low ) 0.25, 0.25, 0.25, 0.25;
    ( acc, 3, big, med, 2, med ) 0.25, 0.25, 0.25, 0.25;
    ( acc, 3, big, med, 4, high ) 0.5, 0.0, 0.0, 0.5;
    ( acc, 3, big, med, 4, low ) 0.25, 0.25, 0.25, 0.25;
    ( acc, 3, big, med, 4, med ) 0.3333333333333333, 0.0, 0.3333333333333333, 0.3333333333333333;
    ( acc, 3, big, med, more, high ) 0.5, 0.0, 0.0, 0.5;
    ( acc, 3, big, med, more, low ) 0.25, 0.25, 0.25, 0.25;
    ( acc, 3, big, med, more, med ) 0.3333333333333333, 0.0, 0.3333333333333333, 0.3333333333333333;
    ( acc, 3, big, vhigh, 2, high ) 0.25, 0.25, 0.25, 0.25;
    ( acc, 3, big, vhigh, 2, low ) 0.25, 0.25, 0.25, 0.25;
    ( acc, 3, big, vhigh, 2, med ) 0.25, 0.25, 0.25, 0.25;
    ( acc, 3, big, vhigh, 4, high ) 0.0, 0.5, 0.5, 0.0;
    ( acc, 3, big, vhigh, 4, low ) 0.25, 0.25, 0.25, 0.25;
    ( acc, 3, big, vhigh, 4, med ) 0.0, 0.5, 0.5, 0.0;
    ( acc, 3, big, vhigh, more, high ) 0.0, 0.5, 0.5, 0.0;
    ( acc, 3, big, vhigh, more, low ) 0.25, 0.25, 0.25, 0.25;
    ( acc, 3, big, vhigh, more, med ) 0.0, 0.5, 0.5, 0.0;
    ( acc, 3, med, high, 2, high ) 0.25, 0.25, 0.25, 0.25;
    ( acc, 3, med, high, 2, low ) 0.25, 0.25, 0.25, 0.25;
    ( acc, 3, med, high, 2, med ) 0.25, 0.25, 0.25, 0.25;
    ( acc, 3, med, high, 4, high ) 0.3333333333333333, 0.3333333333333333, 0.3333333333333333, 0.0;
    ( acc, 3, med, high, 4, low ) 0.25, 0.25, 0.25, 0.25;
    ( acc, 3, med, high, 4, med ) 0.0, 1.0, 0.0, 0.0;
    ( acc, 3, med, high, more, high ) 0.5, 0.0, 0.5, 0.0;
    ( acc, 3, med, high, more, low ) 0.25, 0.25, 0.25, 0.25;
    ( acc, 3, med, high, more, med ) 0.3333333333333333, 0.3333333333333333, 0.3333333333333333, 0.0;
    ( acc, 3, med, low, 2, high ) 0.25, 0.25, 0.25, 0.25;
    ( acc, 3, med, low, 2, low ) 0.25, 0.25, 0.25, 0.25;
    ( acc, 3, med, low, 2, med ) 0.25, 0.25, 0.25, 0.25;
    ( acc, 3, med, low, 4, high ) 0.5, 0.0, 0.0, 0.5;
    ( acc, 3, med, low, 4, low ) 0.25, 0.25, 0.25, 0.25;
    ( acc, 3, med, low, 4, med ) 0.0, 0.5, 0.5, 0.0;
    ( acc, 3, med, low, more, high ) 0.5, 0.0, 0.0, 0.5;
    ( acc, 3, med, low, more, low ) 0.25, 0.25, 0.25, 0.25;
    ( acc, 3, med, low, more, med ) 0.5, 0.0, 0.0, 0.5;
    ( acc, 3, med, med, 2, high ) 0.25, 0.25, 0.25, 0.25;
    ( acc, 3, med, med, 2, low ) 0.25, 0.25, 0.25, 0.25;
    ( acc, 3, med, med, 2, med ) 0.25, 0.25, 0.25, 0.25;
    ( acc, 3, med, med, 4, high ) 0.3333333333333333, 0.0, 0.3333333333333333, 0.3333333333333333;
    ( acc, 3, med, med, 4, low ) 0.25, 0.25, 0.25, 0.25;
    ( acc, 3, med, med, 4, med ) 0.0, 0.5, 0.5, 0.0;
    ( acc, 3, med, med, more, high ) 0.5, 0.0, 0.0, 0.5;
    ( acc, 3, med, med, more, low ) 0.25, 0.25, 0.25, 0.25;
    ( acc, 3, med, med, more, med ) 0.3333333333333333, 0.0, 0.3333333333333333, 0.3333333333333333;
    ( acc, 3, med, vhigh, 2, high ) 0.25, 0.25, 0.25, 0.25;
    ( acc, 3, med, vhigh, 2, low ) 0.25, 0.25, 0.25, 0.25;
    ( acc, 3, med, vhigh, 2, med ) 0.25, 0.25, 0.25, 0.25;
    ( acc, 3, med, vhigh, 4, high ) 0.0, 0.5, 0.5, 0.0;
    ( acc, 3, med, vhigh, 4, low ) 0.25, 0.25, 0.25, 0.25;
    ( acc, 3, med, vhigh, 4, med ) 0.25, 0.25, 0.25, 0.25;
    ( acc, 3, med, vhigh, more, high ) 0.0, 0.5, 0.5, 0.0;
    ( acc, 3, med, vhigh, more, low ) 0.25, 0.25, 0.25, 0.25;
    ( acc, 3, med, vhigh, more, med ) 0.0, 0.5, 0.5, 0.0;
    ( acc, 3, small, high, 2, high ) 0.25, 0.25, 0.25, 0.25;
    ( acc, 3, small, high, 2, low ) 0.25, 0.25, 0.25, 0.25;
    ( acc, 3, small, high, 2, med ) 0.25, 0.25, 0.25, 0.25;
    ( acc, 3, small, high, 4, high ) 0.3333333333333333, 0.3333333333333333, 0.3333333333333333, 0.0;
    ( acc, 3, small, high, 4, low ) 0.25, 0.25, 0.25, 0.25;
    ( acc, 3, small, high, 4, med ) 0.0, 1.0, 0.0, 0.0;
    ( acc, 3, small, high, more, high ) 0.3333333333333333, 0.3333333333333333, 0.3333333333333333, 0.0;
    ( acc, 3, small, high, more, low ) 0.25, 0.25, 0.25, 0.25;
    ( acc, 3, small, high, more, med ) 0.0, 1.0, 0.0, 0.0;
    ( acc, 3, small, low, 2, high ) 0.25, 0.25, 0.25, 0.25;
    ( acc, 3, small, low, 2, low ) 0.25, 0.25, 0.25, 0.25;
    ( acc, 3, small, low, 2, med ) 0.25, 0.25, 0.25, 0.25;
    ( acc, 3, small, low, 4, high ) 0.5, 0.0, 0.0, 0.5;
    ( acc, 3, small, low, 4, low ) 0.25, 0.25, 0.25, 0.25;
    ( acc, 3, small, low, 4, med ) 0.0, 0.5, 0.5, 0.0;
    ( acc, 3, small, low, more, high ) 0.5, 0.0, 0.0, 0.5;
    ( acc, 3, small, low, more, low ) 0.25, 0.25, 0.25, 0.25;
    ( acc, 3, small, low, more, med ) 0.0, 0.5, 0.5, 0.0;
    ( acc, 3, small, med, 2, high ) 0.25, 0.25, 0.25, 0.25;
    ( acc, 3, small, med, 2, low ) 0.25, 0.25, 0.25, 0.25;
    ( acc, 3, small, med, 2, med ) 0.25, 0.25, 0.25, 0.25;
    ( acc, 3, small, med, 4, high ) 0.3333333333333333, 0.0, 0.3333333333333333, 0.3333333333333333;
    ( acc, 3, small, med, 4, low ) 0.25, 0.25, 0.25, 0.25;
    ( acc, 3, small, med, 4, med ) 0.0, 0.5, 0.5, 0.0;
    ( acc, 3, small, med, more, high ) 0.3333333333333333, 0.0, 0.3333333333333333, 0.3333333333333333;
    ( acc, 3, small, med, more, low ) 0.25, 0.25, 0.25, 0.25;
    ( acc, 3, small, med, more, med ) 0.0, 0.5, 0.5, 0.0;
    ( acc, 3, small, vhigh, 2, high ) 0.25, 0.25, 0.25, 0.25;
    ( acc, 3, small, vhigh, 2, low ) 0.25, 0.25, 0.25, 0.25;
    ( acc, 3, small, vhigh, 2, med ) 0.25, 0.25, 0.25, 0.25;
    ( acc, 3, small, vhigh, 4, high ) 0.0, 0.5, 0.5, 0.0;
    ( acc, 3, small, vhigh, 4, low ) 0.25, 0.25, 0.25, 0.25;
    ( acc, 3, small, vhigh, 4, med ) 0.25, 0.25, 0.25, 0.25;
    ( acc, 3, small, vhigh, more, high ) 0.0, 0.5, 0.5, 0.0;
    ( acc, 3, small, vhigh, more, low ) 0.25, 0.25, 0.25, 0.25;
    ( acc, 3, small, vhigh, more, med ) 0.25, 0.25, 0.25, 0.25;
    ( acc, 4, big, high, 2, high ) 0.25, 0.25, 0.25, 0.25;
    ( acc, 4, big, high, 2, low ) 0.25, 0.25, 0.25, 0.25;
    ( acc, 4, big, high, 2, med ) 0.25, 0.25, 0.25, 0.25;
    ( acc, 4, big, high, 4, high ) 0.5, 0.0, 0.5, 0.0;
    ( acc, 4, big, high, 4, low ) 0.25, 0.25, 0.25, 0.25;
    ( acc, 4, big, high, 4, med ) 0.3333333333333333, 0.3333333333333333, 0.3333333333333333, 0.0;
    ( acc, 4, big, high, more, high ) 0.5, 0.0, 0.5, 0.0;
    ( acc, 4, big, high, more, low ) 0.25, 0.25, 0.25, 0.25;
    ( acc, 4, big, high, more, med ) 0.3333333333333333, 0.3333333333333333, 0.3333333333333333, 0.0;
    ( acc, 4, big, low, 2, high ) 0.25, 0.25, 0.25, 0.25;
    ( acc, 4, big, low, 2, low ) 0.25, 0.25, 0.25, 0.25;
    ( acc, 4, big, low, 2, med ) 0.25, 0.25, 0.25, 0.25;
    ( acc, 4, big, low, 4, high ) 0.5, 0.0, 0.0, 0.5;
    ( acc, 4, big, low, 4, low ) 0.25, 0.25, 0.25, 0.25;
    ( acc, 4, big, low, 4, med ) 0.5, 0.0, 0.0, 0.5;
    ( acc, 4, big, low, more, high ) 0.5, 0.0, 0.0, 0.5;
    ( acc, 4, big, low, more, low ) 0.25, 0.25, 0.25, 0.25;
    ( acc, 4, big, low, more, med ) 0.5, 0.0, 0.0, 0.5;
    ( acc, 4, big, med, 2, high ) 0.25, 0.25, 0.25, 0.25;
    ( acc, 4, big, med, 2, low ) 0.25, 0.25, 0.25, 0.25;
    ( acc, 4, big, med, 2, med ) 0.25, 0.25, 0.25, 0.25;
    ( acc, 4, big, med, 4, high ) 0.5, 0.0, 0.0, 0.5;
    ( acc, 4, big, med, 4, low ) 0.25, 0.25, 0.25, 0.25;
    ( acc, 4, big, med, 4, med ) 0.3333333333333333, 0.0, 0.3333333333333333, 0.3333333333333333;
    ( acc, 4, big, med, more, high ) 0.5, 0.0, 0.0, 0.5;
    ( acc, 4, big, med, more, low ) 0.25, 0.25, 0.25, 0.25;
    ( acc, 4, big, med, more, med ) 0.3333333333333333, 0.0, 0.3333333333333333, 0.3333333333333333;
    ( acc, 4, big, vhigh, 2, high ) 0.25, 0.25, 0.25, 0.25;
    ( acc, 4, big, vhigh, 2, low ) 0.25, 0.25, 0.25, 0.25;
    ( acc, 4, big, vhigh, 2, med ) 0.25, 0.25, 0.25, 0.25;
    ( acc, 4, big, vhigh, 4, high ) 0.0, 0.5, 0.5, 0.0;
    ( acc, 4, big, vhigh, 4, low ) 0.25, 0.25, 0.25, 0.25;
    ( acc, 4, big, vhigh, 4, med ) 0.0, 0.5, 0.5, 0.0;
    ( acc, 4, big, vhigh, more, high ) 0.0, 0.5, 0.5, 0.0;
    ( acc, 4, big, vhigh, more, low ) 0.25, 0.25, 0.25, 0.25;
    ( acc, 4, big, vhigh, more, med ) 0.0, 0.5, 0.5, 0.0;
    ( acc, 4, med, high, 2, high ) 0.25, 0.25, 0.25, 0.25;
    ( acc, 4, med, high, 2, low ) 0.25, 0.25, 0.25, 0.25;
    ( acc, 4, med, high, 2, med ) 0.25, 0.25, 0.25, 0.25;
    ( acc, 4, med, high, 4, high ) 0.5, 0.0, 0.5, 0.0;
    ( acc, 4, med, high, 4, low ) 0.25, 0.25, 0.25, 0.25;
    ( acc, 4, med, high, 4, med ) 0.3333333333333333, 0.3333333333333333, 0.3333333333333333, 0.0;
    ( acc, 4, med, high, more, high ) 0.5, 0.0, 0.5, 0.0;
    ( acc, 4, med, high, more, low ) 0.25, 0.25, 0.25, 0.25;
    ( acc, 4, med, high, more, med ) 0.3333333333333333, 0.3333333333333333, 0.3333333333333333, 0.0;
    ( acc, 4, med, low, 2, high ) 0.25, 0.25, 0.25, 0.25;
    ( acc, 4, med, low, 2, low ) 0.25, 0.25, 0.25, 0.25;
    ( acc, 4, med, low, 2, med ) 0.25, 0.25, 0.25, 0.25;
    ( acc, 4, med, low, 4, high ) 0.5, 0.0, 0.0, 0.5;
    ( acc, 4, med, low, 4, low ) 0.25, 0.25, 0.25, 0.25;
    ( acc, 4, med, low, 4, med ) 0.5, 0.0, 0.0, 0.5;
    ( acc, 4, med, low, more, high ) 0.5, 0.0, 0.0, 0.5;
    ( acc, 4, med, low, more, low ) 0.25, 0.25, 0.25, 0.25;
    ( acc, 4, med, low, more, med ) 0.5, 0.0, 0.0, 0.5;
    ( acc, 4, med, med, 2, high ) 0.25, 0.25, 0.25, 0.25;
    ( acc, 4, med, med, 2, low ) 0.25, 0.25, 0.25, 0.25;
    ( acc, 4, med, med, 2, med ) 0.25, 0.25, 0.25, 0.25;
    ( acc, 4, med, med, 4, high ) 0.5, 0.0, 0.0, 0.5;
    ( acc, 4, med, med, 4, low ) 0.25, 0.25, 0.25, 0.25;
    ( acc, 4, med, med, 4, med ) 0.3333333333333333, 0.0, 0.3333333333333333, 0.3333333333333333;
    ( acc, 4, med, med, more, high ) 0.5, 0.0, 0.0, 0.5;
    ( acc, 4, med, med, more, low ) 0.25, 0.25, 0.25, 0.25;
    ( acc, 4, med, med, more, med ) 0.3333333333333333, 0.0, 0.3333333333333333, 0.3333333333333333;
    ( acc, 4, med, vhigh, 2, high ) 0.25, 0.25, 0.25, 0.25;
    ( acc, 4, med, vhigh, 2, low ) 0.25, 0.25, 0.25, 0.25;
    ( acc, 4, med, vhigh, 2, med ) 0.25, 0.25, 0.25, 0.25;
    ( acc, 4, med, vhigh, 4, high ) 0.0, 0.5, 0.5, 0.0;
    ( acc, 4, med, vhigh, 4, low ) 0.25, 0.25, 0.25, 0.25;
    ( acc, 4, med, vhigh, 4, med ) 0.0, 0.5, 0.5, 0.0;
    ( acc, 4, med, vhigh, more, high ) 0.0, 0.5, 0.5, 0.0;
    ( acc, 4, med, vhigh, more, low ) 0.25, 0.25, 0.25, 0.25;
    ( acc, 4, med, vhigh, more, med ) 0.0, 0.5, 0.5, 0.0;
    ( acc, 4, small, high, 2, high ) 0.25, 0.25, 0.25, 0.25;
    ( acc, 4, small, high, 2, low ) 0.25, 0.25, 0.25, 0.25;
    ( acc, 4, small, high, 2, med ) 0.25, 0.25, 0.25, 0.25;
    ( acc, 4, small, high, 4, high ) 0.3333333333333333, 0.3333333333333333, 0.3333333333333333, 0.0;
    ( acc, 4, small, high, 4, low ) 0.25, 0.25, 0.25, 0.25;
    ( acc, 4, small, high, 4, med ) 0.0, 1.0, 0.0, 0.0;
    ( acc, 4, small, high, more, high ) 0.3333333333333333, 0.3333333333333333, 0.3333333333333333, 0.0;
    ( acc, 4, small, high, more, low ) 0.25, 0.25, 0.25, 0.25;
    ( acc, 4, small, high, more, med ) 0.0, 1.0, 0.0, 0.0;
    ( acc, 4, small, low, 2, high ) 0.25, 0.25, 0.25, 0.25;
    ( acc, 4, small, low, 2, low ) 0.25, 0.25, 0.25, 0.25;
    ( acc, 4, small, low, 2, med ) 0.25, 0.25, 0.25, 0.25;
    ( acc, 4, small, low, 4, high ) 0.5, 0.0, 0.0, 0.5;
    ( acc, 4, small, low, 4, low ) 0.25, 0.25, 0.25, 0.25;
    ( acc, 4, small, low, 4, med ) 0.0, 0.5, 0.5, 0.0;
    ( acc, 4, small, low, more, high ) 0.5, 0.0, 0.0, 0.5;
    ( acc, 4, small, low, more, low ) 0.25, 0.25, 0.25, 0.25;
    ( acc, 4, small, low, more, med ) 0.0, 0.5, 0.5, 0.0;
    ( acc, 4, small, med, 2, high ) 0.25, 0.25, 0.25, 0.25;
    ( acc, 4, small, med, 2, low ) 0.25, 0.25, 0.25, 0.25;
    ( acc, 4, small, med, 2, med ) 0.25, 0.25, 0.25, 0.25;
    ( acc, 4, small, med, 4, high ) 0.3333333333333333, 0.0, 0.3333333333333333, 0.3333333333333333;
    ( acc, 4, small, med, 4, low ) 0.25, 0.25, 0.25, 0.25;
    ( acc, 4, small, med, 4, med ) 0.0, 0.5, 0.5, 0.0;
    ( acc, 4, small, med, more, high ) 0.3333333333333333, 0.0, 0.3333333333333333, 0.3333333333333333;
    ( acc, 4, small, med, more, low ) 0.25, 0.25, 0.25, 0.25;
    ( acc, 4, small, med, more, med ) 0.0, 0.5, 0.5, 0.0;
    ( acc, 4, small, vhigh, 2, high ) 0.25, 0.25, 0.25, 0.25;
    ( acc, 4, small, vhigh, 2, low ) 0.25, 0.25, 0.25, 0.25;
    ( acc, 4, small, vhigh, 2, med ) 0.25, 0.25, 0.25, 0.25;
    ( acc, 4, small, vhigh, 4, high ) 0.0, 0.5, 0.5, 0.0;
    ( acc, 4, small, vhigh, 4, low ) 0.25, 0.25, 0.25, 0.25;
    ( acc, 4, small, vhigh, 4, med ) 0.25, 0.25, 0.25, 0.25;
    ( acc, 4, small, vhigh, more, high ) 0.0, 0.5, 0.5, 0.0;
    ( acc, 4, small, vhigh, more, low ) 0.25, 0.25, 0.25, 0.25;
    ( acc, 4, small, vhigh, more, med ) 0.25, 0.25, 0.25, 0.25;
    ( acc, 5more, big, high, 2, high ) 0.25, 0.25, 0.25, 0.25;
    ( acc, 5more, big, high, 2, low ) 0.25, 0.25, 0.25, 0.25;
    ( acc, 5more, big, high, 2, med ) 0.25, 0.25, 0.25, 0.25;
    ( acc, 5more, big, high, 4, high ) 0.5, 0.0, 0.5, 0.0;
    ( acc, 5more, big, high, 4, low ) 0.25, 0.25, 0.25, 0.25;
    ( acc, 5more, big, high, 4, med ) 0.3333333333333333, 0.3333333333333333, 0.3333333333333333, 0.0;
    ( acc, 5more, big, high, more, high ) 0.5, 0.0, 0.5, 0.0;
    ( acc, 5more, big, high, more, low ) 0.25, 0.25, 0.25, 0.25;
    ( acc, 5more, big, high, more, med ) 0.3333333333333333, 0.3333333333333333, 0.3333333333333333, 0.0;
    ( acc, 5more, big, low, 2, high ) 0.25, 0.25, 0.25, 0.25;
    ( acc, 5more, big, low, 2, low ) 0.25, 0.25, 0.25, 0.25;
    ( acc, 5more, big, low, 2, med ) 0.25, 0.25, 0.25, 0.25;
    ( acc, 5more, big, low, 4, high ) 0.5, 0.0, 0.0, 0.5;
    ( acc, 5more, big, low, 4, low ) 0.25, 0.25, 0.25, 0.25;
    ( acc, 5more, big, low, 4, med ) 0.5, 0.0, 0.0, 0.5;
    ( acc, 5more, big, low, more, high ) 0.5, 0.0, 0.0, 0.5;
    ( acc, 5more, big, low, more, low ) 0.25, 0.25, 0.25, 0.25;
    ( acc, 5more, big, low, more, med ) 0.5, 0.0, 0.0, 0.5;
    ( acc, 5more, big, med, 2, high ) 0.25, 0.25, 0.25, 0.25;
    ( acc, 5more, big, med, 2, low ) 0.25, 0.25, 0.25, 0.25;
    ( acc, 5more, big, med, 2, med ) 0.25, 0.25, 0.25, 0.25;
    ( acc, 5more, big, med, 4, high ) 0.5, 0.0, 0.0, 0.5;
    ( acc, 5more, big, med, 4, low ) 0.25, 0.25, 0.25, 0.25;
    ( acc, 5more, big, med, 4, med ) 0.3333333333333333, 0.0, 0.3333333333333333, 0.3333333333333333;
    ( acc, 5more, big, med, more, high ) 0.5, 0.0, 0.0, 0.5;
    ( acc, 5more, big, med, more, low ) 0.25, 0.25, 0.25, 0.25;
    ( acc, 5more, big, med, more, med ) 0.3333333333333333, 0.0, 0.3333333333333333, 0.3333333333333333;
    ( acc, 5more, big, vhigh, 2, high ) 0.25, 0.25, 0.25, 0.25;
    ( acc, 5more, big, vhigh, 2, low ) 0.25, 0.25, 0.25, 0.25;
    ( acc, 5more, big, vhigh, 2, med ) 0.25, 0.25, 0.25, 0.25;
    ( acc, 5more, big, vhigh, 4, high ) 0.0, 0.5, 0.5, 0.0;
    ( acc, 5more, big, vhigh, 4, low ) 0.25, 0.25, 0.25, 0.25;
    ( acc, 5more, big, vhigh, 4, med ) 0.0, 0.5, 0.5, 0.0;
    ( acc, 5more, big, vhigh, more, high ) 0.0, 0.5, 0.5, 0.0;
    ( acc, 5more, big, vhigh, more, low ) 0.25, 0.25, 0.25, 0.25;
    ( acc, 5more, big, vhigh, more, med ) 0.0, 0.5, 0.5, 0.0;
    ( acc, 5more, med, high, 2, high ) 0.25, 0.25, 0.25, 0.25;
    ( acc, 5more, med, high, 2, low ) 0.25, 0.25, 0.25, 0.25;
    ( acc, 5more, med, high, 2, med ) 0.25, 0.25, 0.25, 0.25;
    ( acc, 5more, med, high, 4, high ) 0.5, 0.0, 0.5, 0.0;
    ( acc, 5more, med, high, 4, low ) 0.25, 0.25, 0.25, 0.25;
    ( acc, 5more, med, high, 4, med ) 0.3333333333333333, 0.3333333333333333, 0.3333333333333333, 0.0;
    ( acc, 5more, med, high, more, high ) 0.5, 0.0, 0.5, 0.0;
    ( acc, 5more, med, high, more, low ) 0.25, 0.25, 0.25, 0.25;
    ( acc, 5more, med, high, more, med ) 0.3333333333333333, 0.3333333333333333, 0.3333333333333333, 0.0;
    ( acc, 5more, med, low, 2, high ) 0.25, 0.25, 0.25, 0.25;
    ( acc, 5more, med, low, 2, low ) 0.25, 0.25, 0.25, 0.25;
    ( acc, 5more, med, low, 2, med ) 0.25, 0.25, 0.25, 0.25;
    ( acc, 5more, med, low, 4, high ) 0.5, 0.0, 0.0, 0.5;
    ( acc, 5more, med, low, 4, low ) 0.25, 0.25, 0.25, 0.25;
    ( acc, 5more, med, low, 4, med ) 0.5, 0.0, 0.0, 0.5;
    ( acc, 5more, med, low, more, high ) 0.5, 0.0, 0.0, 0.5;
    ( acc, 5more, med, low, more, low ) 0.25, 0.25, 0.25, 0.25;
    ( acc, 5more, med, low, more, med ) 0.5, 0.0, 0.0, 0.5;
    ( acc, 5more, med, med, 2, high ) 0.25, 0.25, 0.25, 0.25;
    ( acc, 5more, med, med, 2, low ) 0.25, 0.25, 0.25, 0.25;
    ( acc, 5more, med, med, 2, med ) 0.25, 0.25, 0.25, 0.25;
    ( acc, 5more, med, med, 4, high ) 0.5, 0.0, 0.0, 0.5;
    ( acc, 5more, med, med, 4, low ) 0.25, 0.25, 0.25, 0.25;
    ( acc, 5more, med, med, 4, med ) 0.3333333333333333, 0.0, 0.3333333333333333, 0.3333333333333333;
    ( acc, 5more, med, med, more, high ) 0.5, 0.0, 0.0, 0.5;
    ( acc, 5more, med, med, more, low ) 0.25, 0.25, 0.25, 0.25;
    ( acc, 5more, med, med, more, med ) 0.3333333333333333, 0.0, 0.3333333333333333, 0.3333333333333333;
    ( acc, 5more, med, vhigh, 2, high ) 0.25, 0.25, 0.25, 0.25;
    ( acc, 5more, med, vhigh, 2, low ) 0.25, 0.25, 0.25, 0.25;
    ( acc, 5more, med, vhigh, 2, med ) 0.25, 0.25, 0.25, 0.25;
    ( acc, 5more, med, vhigh, 4, high ) 0.0, 0.5, 0.5, 0.0;
    ( acc, 5more, med, vhigh, 4, low ) 0.25, 0.25, 0.25, 0.25;
    ( acc, 5more, med, vhigh, 4, med ) 0.0, 0.5, 0.5, 0.0;
    ( acc, 5more, med, vhigh, more, high ) 0.0, 0.5, 0.5, 0.0;
    ( acc, 5more, med, vhigh, more, low ) 0.25, 0.25, 0.25, 0.25;
    ( acc, 5more, med, vhigh, more, med ) 0.0, 0.5, 0.5, 0.0;
    ( acc, 5more, small, high, 2, high ) 0.25, 0.25, 0.25, 0.25;
    ( acc, 5more, small, high, 2, low ) 0.25, 0.25, 0.25, 0.25;
    ( acc, 5more, small, high, 2, med ) 0.25, 0.25, 0.25, 0.25;
    ( acc, 5more, small, high, 4, high ) 0.3333333333333333, 0.3333333333333333, 0.3333333333333333, 0.0;
    ( acc, 5more, small, high, 4, low ) 0.25, 0.25, 0.25, 0.25;
    ( acc, 5more, small, high, 4, med ) 0.0, 1.0, 0.0, 0.0;
    ( acc, 5more, small, high, more, high ) 0.3333333333333333, 0.3333333333333333, 0.3333333333333333, 0.0;
    ( acc, 5more, small, high, more, low ) 0.25, 0.25, 0.25, 0.25;
    ( acc, 5more, small, high, more, med ) 0.0, 1.0, 0.0, 0.0;
    ( acc, 5more, small, low, 2, high ) 0.25, 0.25, 0.25, 0.25;
    ( acc, 5more, small, low, 2, low ) 0.25, 0.25, 0.25, 0.25;
    ( acc, 5more, small, low, 2, med ) 0.25, 0.25, 0.25, 0.25;
    ( acc, 5more, small, low, 4, high ) 0.5, 0.0, 0.0, 0.5;
    ( acc, 5more, small, low, 4, low ) 0.25, 0.25, 0.25, 0.25;
    ( acc, 5more, small, low, 4, med ) 0.0, 0.5, 0.5, 0.0;
    ( acc, 5more, small, low, more, high ) 0.5, 0.0, 0.0, 0.5;
    ( acc, 5more, small, low, more, low ) 0.25, 0.25, 0.25, 0.25;
    ( acc, 5more, small, low, more, med ) 0.0, 0.5, 0.5, 0.0;
    ( acc, 5more, small, med, 2, high ) 0.25, 0.25, 0.25, 0.25;
    ( acc, 5more, small, med, 2, low ) 0.25, 0.25, 0.25, 0.25;
    ( acc, 5more, small, med, 2, med ) 0.25, 0.25, 0.25, 0.25;
    ( acc, 5more, small, med, 4, high ) 0.3333333333333333, 0.0, 0.3333333333333333, 0.3333333333333333;
    ( acc, 5more, small, med, 4, low ) 0.25, 0.25, 0.25, 0.25;
    ( acc, 5more, small, med, 4, med ) 0.0, 0.5, 0.5, 0.0;
    ( acc, 5more, small, med, more, high ) 0.3333333333333333, 0.0, 0.3333333333333333, 0.3333333333333333;
    ( acc, 5more, small, med, more, low ) 0.25, 0.25, 0.25, 0.25;
    ( acc, 5more, small, med, more, med ) 0.0, 0.5, 0.5, 0.0;
    ( acc, 5more, small, vhigh, 2, high ) 0.25, 0.25, 0.25, 0.25;
    ( acc, 5more, small, vhigh, 2, low ) 0.25, 0.25, 0.25, 0.25;
    ( acc, 5more, small, vhigh, 2, med ) 0.25, 0.25, 0.25, 0.25;
    ( acc, 5more, small, vhigh, 4, high ) 0.0, 0.5, 0.5, 0.0;
    ( acc, 5more, small, vhigh, 4, low ) 0.25, 0.25, 0.25, 0.25;
    ( acc, 5more, small, vhigh, 4, med ) 0.25, 0.25, 0.25, 0.25;
    ( acc, 5more, small, vhigh, more, high ) 0.0, 0.5, 0.5, 0.0;
    ( acc, 5more, small, vhigh, more, low ) 0.25, 0.25, 0.25, 0.25;
    ( acc, 5more, small, vhigh, more, med ) 0.25, 0.25, 0.25, 0.25;
    ( good, 2, big, high, 2, high ) 0.25, 0.25, 0.25, 0.25;
    ( good, 2, big, high, 2, low ) 0.25, 0.25, 0.25, 0.25;
    ( good, 2, big, high, 2, med ) 0.25, 0.25, 0.25, 0.25;
    ( good, 2, big, high, 4, high ) 0.25, 0.25, 0.25, 0.25;
    ( good, 2, big, high, 4, low ) 0.25, 0.25, 0.25, 0.25;
    ( good, 2, big, high, 4, med ) 0.25, 0.25, 0.25, 0.25;
    ( good, 2, big, high, more, high ) 0.25, 0.25, 0.25, 0.25;
    ( good, 2, big, high, more, low ) 0.25, 0.25, 0.25, 0.25;
    ( good, 2, big, high, more, med ) 0.25, 0.25, 0.25, 0.25;
    ( good, 2, big, low, 2, high ) 0.25, 0.25, 0.25, 0.25;
    ( good, 2, big, low, 2, low ) 0.25, 0.25, 0.25, 0.25;
    ( good, 2, big, low, 2, med ) 0.25, 0.25, 0.25, 0.25;
    ( good, 2, big, low, 4, high ) 0.25, 0.25, 0.25, 0.25;
    ( good, 2, big, low, 4, low ) 0.25, 0.25, 0.25, 0.25;
    ( good, 2, big, low, 4, med ) 0.0, 0.5, 0.5, 0.0;
    ( good, 2, big, low, more, high ) 0.25, 0.25, 0.25, 0.25;
    ( good, 2, big, low, more, low ) 0.25, 0.25, 0.25, 0.25;
    ( good, 2, big, low, more, med ) 0.0, 0.5, 0.5, 0.0;
    ( good, 2, big, med, 2, high ) 0.25, 0.25, 0.25, 0.25;
    ( good, 2, big, med, 2, low ) 0.25, 0.25, 0.25, 0.25;
    ( good, 2, big, med, 2, med ) 0.25, 0.25, 0.25, 0.25;
    ( good, 2, big, med, 4, high ) 0.25, 0.25, 0.25, 0.25;
    ( good, 2, big, med, 4, low ) 0.25, 0.25, 0.25, 0.25;
    ( good, 2, big, med, 4, med ) 0.0, 1.0, 0.0, 0.0;
    ( good, 2, big, med, more, high ) 0.25, 0.25, 0.25, 0.25;
    ( good, 2, big, med, more, low ) 0.25, 0.25, 0.25, 0.25;
    ( good, 2, big, med, more, med ) 0.0, 1.0, 0.0, 0.0;
    ( good, 2, big, vhigh, 2, high ) 0.25, 0.25, 0.25, 0.25;
    ( good, 2, big, vhigh, 2, low ) 0.25, 0.25, 0.25, 0.25;
    ( good, 2, big, vhigh, 2, med ) 0.25, 0.25, 0.25, 0.25;
    ( good, 2, big, vhigh, 4, high ) 0.25, 0.25, 0.25, 0.25;
    ( good, 2, big, vhigh, 4, low ) 0.25, 0.25, 0.25, 0.25;
    ( good, 2, big, vhigh, 4, med ) 0.25, 0.25, 0.25, 0.25;
    ( good, 2, big, vhigh, more, high ) 0.25, 0.25, 0.25, 0.25;
    ( good, 2, big, vhigh, more, low ) 0.25, 0.25, 0.25, 0.25;
    ( good, 2, big, vhigh, more, med ) 0.25, 0.25, 0.25, 0.25;
    ( good, 2, med, high, 2, high ) 0.25, 0.25, 0.25, 0.25;
    ( good, 2, med, high, 2, low ) 0.25, 0.25, 0.25, 0.25;
    ( good, 2, med, high, 2, med ) 0.25, 0.25, 0.25, 0.25;
    ( good, 2, med, high, 4, high ) 0.25, 0.25, 0.25, 0.25;
    ( good, 2, med, high, 4, low ) 0.25, 0.25, 0.25, 0.25;
    ( good, 2, med, high, 4, med ) 0.25, 0.25, 0.25, 0.25;
    ( good, 2, med, high, more, high ) 0.25, 0.25, 0.25, 0.25;
    ( good, 2, med, high, more, low ) 0.25, 0.25, 0.25, 0.25;
    ( good, 2, med, high, more, med ) 0.25, 0.25, 0.25, 0.25;
    ( good, 2, med, low, 2, high ) 0.25, 0.25, 0.25, 0.25;
    ( good, 2, med, low, 2, low ) 0.25, 0.25, 0.25, 0.25;
    ( good, 2, med, low, 2, med ) 0.25, 0.25, 0.25, 0.25;
    ( good, 2, med, low, 4, high ) 0.0, 0.5, 0.5, 0.0;
    ( good, 2, med, low, 4, low ) 0.25, 0.25, 0.25, 0.25;
    ( good, 2, med, low, 4, med ) 0.25, 0.25, 0.25, 0.25;
    ( good, 2, med, low, more, high ) 0.0, 0.5, 0.5, 0.0;
    ( good, 2, med, low, more, low ) 0.25, 0.25, 0.25, 0.25;
    ( good, 2, med, low, more, med ) 0.25, 0.25, 0.25, 0.25;
    ( good, 2, med, med, 2, high ) 0.25, 0.25, 0.25, 0.25;
    ( good, 2, med, med, 2, low ) 0.25, 0.25, 0.25, 0.25;
    ( good, 2, med, med, 2, med ) 0.25, 0.25, 0.25, 0.25;
    ( good, 2, med, med, 4, high ) 0.0, 1.0, 0.0, 0.0;
    ( good, 2, med, med, 4, low ) 0.25, 0.25, 0.25, 0.25;
    ( good, 2, med, med, 4, med ) 0.25, 0.25, 0.25, 0.25;
    ( good, 2, med, med, more, high ) 0.0, 1.0, 0.0, 0.0;
    ( good, 2, med, med, more, low ) 0.25, 0.25, 0.25, 0.25;
    ( good, 2, med, med, more, med ) 0.25, 0.25, 0.25, 0.25;
    ( good, 2, med, vhigh, 2, high ) 0.25, 0.25, 0.25, 0.25;
    ( good, 2, med, vhigh, 2, low ) 0.25, 0.25, 0.25, 0.25;
    ( good, 2, med, vhigh, 2, med ) 0.25, 0.25, 0.25, 0.25;
    ( good, 2, med, vhigh, 4, high ) 0.25, 0.25, 0.25, 0.25;
    ( good, 2, med, vhigh, 4, low ) 0.25, 0.25, 0.25, 0.25;
    ( good, 2, med, vhigh, 4, med ) 0.25, 0.25, 0.25, 0.25;
    ( good, 2, med, vhigh, more, high ) 0.25, 0.25, 0.25, 0.25;
    ( good, 2, med, vhigh, more, low ) 0.25, 0.25, 0.25, 0.25;
    ( good, 2, med, vhigh, more, med ) 0.25, 0.25, 0.25, 0.25;
    ( good, 2, small, high, 2, high ) 0.25, 0.25, 0.25, 0.25;
    ( good, 2, small, high, 2, low ) 0.25, 0.25, 0.25, 0.25;
    ( good, 2, small, high, 2, med ) 0.25, 0.25, 0.25, 0.25;
    ( good, 2, small, high, 4, high ) 0.25, 0.25, 0.25, 0.25;
    ( good, 2, small, high, 4, low ) 0.25, 0.25, 0.25, 0.25;
    ( good, 2, small, high, 4, med ) 0.25, 0.25, 0.25, 0.25;
    ( good, 2, small, high, more, high ) 0.25, 0.25, 0.25, 0.25;
    ( good, 2, small, high, more, low ) 0.25, 0.25, 0.25, 0.25;
    ( good, 2, small, high, more, med ) 0.25, 0.25, 0.25, 0.25;
    ( good, 2, small, low, 2, high ) 0.25, 0.25, 0.25, 0.25;
    ( good, 2, small, low, 2, low ) 0.25, 0.25, 0.25, 0.25;
    ( good, 2, small, low, 2, med ) 0.25, 0.25, 0.25, 0.25;
    ( good, 2, small, low, 4, high ) 0.0, 0.5, 0.5, 0.0;
    ( good, 2, small, low, 4, low ) 0.25, 0.25, 0.25, 0.25;
    ( good, 2, small, low, 4, med ) 0.25, 0.25, 0.25, 0.25;
    ( good, 2, small, low, more, high ) 0.25, 0.25, 0.25, 0.25;
    ( good, 2, small, low, more, low ) 0.25, 0.25, 0.25, 0.25;
    ( good, 2, small, low, more, med ) 0.25, 0.25, 0.25, 0.25;
    ( good, 2, small, med, 2, high ) 0.25, 0.25, 0.25, 0.25;
    ( good, 2, small, med, 2, low ) 0.25, 0.25, 0.25, 0.25;
    ( good, 2, small, med, 2, med ) 0.25, 0.25, 0.25, 0.25;
    ( good, 2, small, med, 4, high ) 0.0, 1.0, 0.0, 0.0;
    ( good, 2, small, med, 4, low ) 0.25, 0.25, 0.25, 0.25;
    ( good, 2, small, med, 4, med ) 0.25, 0.25, 0.25, 0.25;
    ( good, 2, small, med, more, high ) 0.25, 0.25, 0.25, 0.25;
    ( good, 2, small, med, more, low ) 0.25, 0.25, 0.25, 0.25;
    ( good, 2, small, med, more, med ) 0.25, 0.25, 0.25, 0.25;
    ( good, 2, small, vhigh, 2, high ) 0.25, 0.25, 0.25, 0.25;
    ( good, 2, small, vhigh, 2, low ) 0.25, 0.25, 0.25, 0.25;
    ( good, 2, small, vhigh, 2, med ) 0.25, 0.25, 0.25, 0.25;
    ( good, 2, small, vhigh, 4, high ) 0.25, 0.25, 0.25, 0.25;
    ( good, 2, small, vhigh, 4, low ) 0.25, 0.25, 0.25, 0.25;
    ( good, 2, small, vhigh, 4, med ) 0.25, 0.25, 0.25, 0.25;
    ( good, 2, small, vhigh, more, high ) 0.25, 0.25, 0.25, 0.25;
    ( good, 2, small, vhigh, more, low ) 0.25, 0.25, 0.25, 0.25;
    ( good, 2, small, vhigh, more, med ) 0.25, 0.25, 0.25, 0.25;
    ( good, 3, big, high, 2, high ) 0.25, 0.25, 0.25, 0.25;
    ( good, 3, big, high, 2, low ) 0.25, 0.25, 0.25, 0.25;
    ( good, 3, big, high, 2, med ) 0.25, 0.25, 0.25, 0.25;
    ( good, 3, big, high, 4, high ) 0.25, 0.25, 0.25, 0.25;
    ( good, 3, big, high, 4, low ) 0.25, 0.25, 0.25, 0.25;
    ( good, 3, big, high, 4, med ) 0.25, 0.25, 0.25, 0.25;
    ( good, 3, big, high, more, high ) 0.25, 0.25, 0.25, 0.25;
    ( good, 3, big, high, more, low ) 0.25, 0.25, 0.25, 0.25;
    ( good, 3, big, high, more, med ) 0.25, 0.25, 0.25, 0.25;
    ( good, 3, big, low, 2, high ) 0.25, 0.25, 0.25, 0.25;
    ( good, 3, big, low, 2, low ) 0.25, 0.25, 0.25, 0.25;
    ( good, 3, big, low, 2, med ) 0.25, 0.25, 0.25, 0.25;
    ( good, 3, big, low, 4, high ) 0.25, 0.25, 0.25, 0.25;
    ( good, 3, big, low, 4, low ) 0.25, 0.25, 0.25, 0.25;
    ( good, 3, big, low, 4, med ) 0.0, 0.5, 0.5, 0.0;
    ( good, 3, big, low, more, high ) 0.25, 0.25, 0.25, 0.25;
    ( good, 3, big, low, more, low ) 0.25, 0.25, 0.25, 0.25;
    ( good, 3, big, low, more, med ) 0.0, 0.5, 0.5, 0.0;
    ( good, 3, big, med, 2, high ) 0.25, 0.25, 0.25, 0.25;
    ( good, 3, big, med, 2, low ) 0.25, 0.25, 0.25, 0.25;
    ( good, 3, big, med, 2, med ) 0.25, 0.25, 0.25, 0.25;
    ( good, 3, big, med, 4, high ) 0.25, 0.25, 0.25, 0.25;
    ( good, 3, big, med, 4, low ) 0.25, 0.25, 0.25, 0.25;
    ( good, 3, big, med, 4, med ) 0.0, 1.0, 0.0, 0.0;
    ( good, 3, big, med, more, high ) 0.25, 0.25, 0.25, 0.25;
    ( good, 3, big, med, more, low ) 0.25, 0.25, 0.25, 0.25;
    ( good, 3, big, med, more, med ) 0.0, 1.0, 0.0, 0.0;
    ( good, 3, big, vhigh, 2, high ) 0.25, 0.25, 0.25, 0.25;
    ( good, 3, big, vhigh, 2, low ) 0.25, 0.25, 0.25, 0.25;
    ( good, 3, big, vhigh, 2, med ) 0.25, 0.25, 0.25, 0.25;
    ( good, 3, big, vhigh, 4, high ) 0.25, 0.25, 0.25, 0.25;
    ( good, 3, big, vhigh, 4, low ) 0.25, 0.25, 0.25, 0.25;
    ( good, 3, big, vhigh, 4, med ) 0.25, 0.25, 0.25, 0.25;
    ( good, 3, big, vhigh, more, high ) 0.25, 0.25, 0.25, 0.25;
    ( good, 3, big, vhigh, more, low ) 0.25, 0.25, 0.25, 0.25;
    ( good, 3, big, vhigh, more, med ) 0.25, 0.25, 0.25, 0.25;
    ( good, 3, med, high, 2, high ) 0.25, 0.25, 0.25, 0.25;
    ( good, 3, med, high, 2, low ) 0.25, 0.25, 0.25, 0.25;
    ( good, 3, med, high, 2, med ) 0.25, 0.25, 0.25, 0.25;
    ( good, 3, med, high, 4, high ) 0.25, 0.25, 0.25, 0.25;
    ( good, 3, med, high, 4, low ) 0.25, 0.25, 0.25, 0.25;
    ( good, 3, med, high, 4, med ) 0.25, 0.25, 0.25, 0.25;
    ( good, 3, med, high, more, high ) 0.25, 0.25, 0.25, 0.25;
    ( good, 3, med, high, more, low ) 0.25, 0.25, 0.25, 0.25;
    ( good, 3, med, high, more, med ) 0.25, 0.25, 0.25, 0.25;
    ( good, 3, med, low, 2, high ) 0.25, 0.25, 0.25, 0.25;
    ( good, 3, med, low, 2, low ) 0.25, 0.25, 0.25, 0.25;
    ( good, 3, med, low, 2, med ) 0.25, 0.25, 0.25, 0.25;
    ( good, 3, med, low, 4, high ) 0.0, 0.5, 0.5, 0.0;
    ( good, 3, med, low, 4, low ) 0.25, 0.25, 0.25, 0.25;
    ( good, 3, med, low, 4, med ) 0.25, 0.25, 0.25, 0.25;
    ( good, 3, med, low, more, high ) 0.25, 0.25, 0.25, 0.25;
    ( good, 3, med, low, more, low ) 0.25, 0.25, 0.25, 0.25;
    ( good, 3, med, low, more, med ) 0.0, 0.5, 0.5, 0.0;
    ( good, 3, med, med, 2, high ) 0.25, 0.25, 0.25, 0.25;
    ( good, 3, med, med, 2, low ) 0.25, 0.25, 0.25, 0.25;
    ( good, 3, med, med, 2, med ) 0.25, 0.25, 0.25, 0.25;
    ( good, 3, med, med, 4, high ) 0.0, 1.0, 0.0, 0.0;
    ( good, 3, med, med, 4, low ) 0.25, 0.25, 0.25, 0.25;
    ( good, 3, med, med, 4, med ) 0.25, 0.25, 0.25, 0.25;
    ( good, 3, med, med, more, high ) 0.25, 0.25, 0.25, 0.25;
    ( good, 3, med, med, more, low ) 0.25, 0.25, 0.25, 0.25;
    ( good, 3, med, med, more, med ) 0.0, 1.0, 0.0, 0.0;
    ( good, 3, med, vhigh, 2, high ) 0.25, 0.25, 0.25, 0.25;
    ( good, 3, med, vhigh, 2, low ) 0.25, 0.25, 0.25, 0.25;
    ( good, 3, med, vhigh, 2, med ) 0.25, 0.25, 0.25, 0.25;
    ( good, 3, med, vhigh, 4, high ) 0.25, 0.25, 0.25, 0.25;
    ( good, 3, med, vhigh, 4, low ) 0.25, 0.25, 0.25, 0.25;
    ( good, 3, med, vhigh, 4, med ) 0.25, 0.25, 0.25, 0.25;
    ( good, 3, med, vhigh, more, high ) 0.25, 0.25, 0.25, 0.25;
    ( good, 3, med, vhigh, more, low ) 0.25, 0.25, 0.25, 0.25;
    ( good, 3, med, vhigh, more, med ) 0.25, 0.25, 0.25, 0.25;
    ( good, 3, small, high, 2, high ) 0.25, 0.25, 0.25, 0.25;
    ( good, 3, small, high, 2, low ) 0.25, 0.25, 0.25, 0.25;
    ( good, 3, small, high, 2, med ) 0.25, 0.25, 0.25, 0.25;
    ( good, 3, small, high, 4, high ) 0.25, 0.25, 0.25, 0.25;
    ( good, 3, small, high, 4, low ) 0.25, 0.25, 0.25, 0.25;
    ( good, 3, small, high, 4, med ) 0.25, 0.25, 0.25, 0.25;
    ( good, 3, small, high, more, high ) 0.25, 0.25, 0.25, 0.25;
    ( good, 3, small, high, more, low ) 0.25, 0.25, 0.25, 0.25;
    ( good, 3, small, high, more, med ) 0.25, 0.25, 0.25, 0.25;
    ( good, 3, small, low, 2, high ) 0.25, 0.25, 0.25, 0.25;
    ( good, 3, small, low, 2, low ) 0.25, 0.25, 0.25, 0.25;
    ( good, 3, small, low, 2, med ) 0.25, 0.25, 0.25, 0.25;
    ( good, 3, small, low, 4, high ) 0.0, 0.5, 0.5, 0.0;
    ( good, 3, small, low, 4, low ) 0.25, 0.25, 0.25, 0.25;
    ( good, 3, small, low, 4, med ) 0.25, 0.25, 0.25, 0.25;
    ( good, 3, small, low, more, high ) 0.0, 0.5, 0.5, 0.0;
    ( good, 3, small, low, more, low ) 0.25, 0.25, 0.25, 0.25;
    ( good, 3, small, low, more, med ) 0.25, 0.25, 0.25, 0.25;
    ( good, 3, small, med, 2, high ) 0.25, 0.25, 0.25, 0.25;
    ( good, 3, small, med, 2, low ) 0.25, 0.25, 0.25, 0.25;
    ( good, 3, small, med, 2, med ) 0.25, 0.25, 0.25, 0.25;
    ( good, 3, small, med, 4, high ) 0.0, 1.0, 0.0, 0.0;
    ( good, 3, small, med, 4, low ) 0.25, 0.25, 0.25, 0.25;
    ( good, 3, small, med, 4, med ) 0.25, 0.25, 0.25, 0.25;
    ( good, 3, small, med, more, high ) 0.0, 1.0, 0.0, 0.0;
    ( good, 3, small, med, more, low ) 0.25, 0.25, 0.25, 0.25;
    ( good, 3, small, med, more, med ) 0.25, 0.25, 0.25, 0.25;
    ( good, 3, small, vhigh, 2, high ) 0.25, 0.25, 0.25, 0.25;
    ( good, 3, small, vhigh, 2, low ) 0.25, 0.25, 0.25, 0.25;
    ( good, 3, small, vhigh, 2, med ) 0.25, 0.25, 0.25, 0.25;
    ( good, 3, small, vhigh, 4, high ) 0.25, 0.25, 0.25, 0.25;
    ( good, 3, small, vhigh, 4, low ) 0.25, 0.25, 0.25, 0.25;
    ( good, 3, small, vhigh, 4, med ) 0.25, 0.25, 0.25, 0.25;
    ( good, 3, small, vhigh, more, high ) 0.25, 0.25, 0.25, 0.25;
    ( good, 3, small, vhigh, more, low ) 0.25, 0.25, 0.25, 0.25;
    ( good, 3, small, vhigh, more, med ) 0.25, 0.25, 0.25, 0.25;
    ( good, 4, big, high, 2, high ) 0.25, 0.25, 0.25, 0.25;
    ( good, 4, big, high, 2, low ) 0.25, 0.25, 0.25, 0.25;
    ( good, 4, big, high, 2, med ) 0.25, 0.25, 0.25, 0.25;
    ( good, 4, big, high, 4, high ) 0.25, 0.25, 0.25, 0.25;
    ( good, 4, big, high, 4, low ) 0.25, 0.25, 0.25, 0.25;
    ( good, 4, big, high, 4, med ) 0.25, 0.25, 0.25, 0.25;
    ( good, 4, big, high, more, high ) 0.25, 0.25, 0.25, 0.25;
    ( good, 4, big, high, more, low ) 0.25, 0.25, 0.25, 0.25;
    ( good, 4, big, high, more, med ) 0.25, 0.25, 0.25, 0.25;
    ( good, 4, big, low, 2, high ) 0.25, 0.25, 0.25, 0.25;
    ( good, 4, big, low, 2, low ) 0.25, 0.25, 0.25, 0.25;
    ( good, 4, big, low, 2, med ) 0.25, 0.25, 0.25, 0.25;
    ( good, 4, big, low, 4, high ) 0.25, 0.25, 0.25, 0.25;
    ( good, 4, big, low, 4, low ) 0.25, 0.25, 0.25, 0.25;
    ( good, 4, big, low, 4, med ) 0.0, 0.5, 0.5, 0.0;
    ( good, 4, big, low, more, high ) 0.25, 0.25, 0.25, 0.25;
    ( good, 4, big, low, more, low ) 0.25, 0.25, 0.25, 0.25;
    ( good, 4, big, low, more, med ) 0.0, 0.5, 0.5, 0.0;
    ( good, 4, big, med, 2, high ) 0.25, 0.25, 0.25, 0.25;
    ( good, 4, big, med, 2, low ) 0.25, 0.25, 0.25, 0.25;
    ( good, 4, big, med, 2, med ) 0.25, 0.25, 0.25, 0.25;
    ( good, 4, big, med, 4, high ) 0.25, 0.25, 0.25, 0.25;
    ( good, 4, big, med, 4, low ) 0.25, 0.25, 0.25, 0.25;
    ( good, 4, big, med, 4, med ) 0.0, 1.0, 0.0, 0.0;
    ( good, 4, big, med, more, high ) 0.25, 0.25, 0.25, 0.25;
    ( good, 4, big, med, more, low ) 0.25, 0.25, 0.25, 0.25;
    ( good, 4, big, med, more, med ) 0.0, 1.0, 0.0, 0.0;
    ( good, 4, big, vhigh, 2, high ) 0.25, 0.25, 0.25, 0.25;
    ( good, 4, big, vhigh, 2, low ) 0.25, 0.25, 0.25, 0.25;
    ( good, 4, big, vhigh, 2, med ) 0.25, 0.25, 0.25, 0.25;
    ( good, 4, big, vhigh, 4, high ) 0.25, 0.25, 0.25, 0.25;
    ( good, 4, big, vhigh, 4, low ) 0.25, 0.25, 0.25, 0.25;
    ( good, 4, big, vhigh, 4, med ) 0.25, 0.25, 0.25, 0.25;
    ( good, 4, big, vhigh, more, high ) 0.25, 0.25, 0.25, 0.25;
    ( good, 4, big, vhigh, more, low ) 0.25, 0.25, 0.25, 0.25;
    ( good, 4, big, vhigh, more, med ) 0.25, 0.25, 0.25, 0.25;
    ( good, 4, med, high, 2, high ) 0.25, 0.25, 0.25, 0.25;
    ( good, 4, med, high, 2, low ) 0.25, 0.25, 0.25, 0.25;
    ( good, 4, med, high, 2, med ) 0.25, 0.25, 0.25, 0.25;
    ( good, 4, med, high, 4, high ) 0.25, 0.25, 0.25, 0.25;
    ( good, 4, med, high, 4, low ) 0.25, 0.25, 0.25, 0.25;
    ( good, 4, med, high, 4, med ) 0.25, 0.25, 0.25, 0.25;
    ( good, 4, med, high, more, high ) 0.25, 0.25, 0.25, 0.25;
    ( good, 4, med, high, more, low ) 0.25, 0.25, 0.25, 0.25;
    ( good, 4, med, high, more, med ) 0.25, 0.25, 0.25, 0.25;
    ( good, 4, med, low, 2, high ) 0.25, 0.25, 0.25, 0.25;
    ( good, 4, med, low, 2, low ) 0.25, 0.25, 0.25, 0.25;
    ( good, 4, med, low, 2, med ) 0.25, 0.25, 0.25, 0.25;
    ( good, 4, med, low, 4, high ) 0.25, 0.25, 0.25, 0.25;
    ( good, 4, med, low, 4, low ) 0.25, 0.25, 0.25, 0.25;
    ( good, 4, med, low, 4, med ) 0.0, 0.5, 0.5, 0.0;
    ( good, 4, med, low, more, high ) 0.25, 0.25, 0.25, 0.25;
    ( good, 4, med, low, more, low ) 0.25, 0.25, 0.25, 0.25;
    ( good, 4, med, low, more, med ) 0.0, 0.5, 0.5, 0.0;
    ( good, 4, med, med, 2, high ) 0.25, 0.25, 0.25, 0.25;
    ( good, 4, med, med, 2, low ) 0.25, 0.25, 0.25, 0.25;
    ( good, 4, med, med, 2, med ) 0.25, 0.25, 0.25, 0.25;
    ( good, 4, med, med, 4, high ) 0.25, 0.25, 0.25, 0.25;
    ( good, 4, med, med, 4, low ) 0.25, 0.25, 0.25, 0.25;
    ( good, 4, med, med, 4, med ) 0.0, 1.0, 0.0, 0.0;
    ( good, 4, med, med, more, high ) 0.25, 0.25, 0.25, 0.25;
    ( good, 4, med, med, more, low ) 0.25, 0.25, 0.25, 0.25;
    ( good, 4, med, med, more, med ) 0.0, 1.0, 0.0, 0.0;
    ( good, 4, med, vhigh, 2, high ) 0.25, 0.25, 0.25, 0.25;
    ( good, 4, med, vhigh, 2, low ) 0.25, 0.25, 0.25, 0.25;
    ( good, 4, med, vhigh, 2, med ) 0.25, 0.25, 0.25, 0.25;
    ( good, 4, med, vhigh, 4, high ) 0.25, 0.25, 0.25, 0.25;
    ( good, 4, med, vhigh, 4, low ) 0.25, 0.25, 0.25, 0.25;
    ( good, 4, med, vhigh, 4, med ) 0.25, 0.25, 0.25, 0.25;
    ( good, 4, med, vhigh, more, high ) 0.25, 0.25, 0.25, 0.25;
    ( good, 4, med, vhigh, more, low ) 0.25, 0.25, 0.25, 0.25;
    ( good, 4, med, vhigh, more, med ) 0.25, 0.25, 0.25, 0.25;
    ( good, 4, small, high, 2, high ) 0.25, 0.25, 0.25, 0.25;
    ( good, 4, small, high, 2, low ) 0.25, 0.25, 0.25, 0.25;
    ( good, 4, small, high, 2, med ) 0.25, 0.25, 0.25, 0.25;
    ( good, 4, small, high, 4, high ) 0.25, 0.25, 0.25, 0.25;
    ( good, 4, small, high, 4, low ) 0.25, 0.25, 0.25, 0.25;
    ( good, 4, small, high, 4, med ) 0.25, 0.25, 0.25, 0.25;
    ( good, 4, small, high, more, high ) 0.25, 0.25, 0.25, 0.25;
    ( good, 4, small, high, more, low ) 0.25, 0.25, 0.25, 0.25;
    ( good, 4, small, high, more, med ) 0.25, 0.25, 0.25, 0.25;
    ( good, 4, small, low, 2, high ) 0.25, 0.25, 0.25, 0.25;
    ( good, 4, small, low, 2, low ) 0.25, 0.25, 0.25, 0.25;
    ( good, 4, small, low, 2, med ) 0.25, 0.25, 0.25, 0.25;
    ( good, 4, small, low, 4, high ) 0.0, 0.5, 0.5, 0.0;
    ( good, 4, small, low, 4, low ) 0.25, 0.25, 0.25, 0.25;
    ( good, 4, small, low, 4, med ) 0.25, 0.25, 0.25, 0.25;
    ( good, 4, small, low, more, high ) 0.0, 0.5, 0.5, 0.0;
    ( good, 4, small, low, more, low ) 0.25, 0.25, 0.25, 0.25;
    ( good, 4, small, low, more, med ) 0.25, 0.25, 0.25, 0.25;
    ( good, 4, small, med, 2, high ) 0.25, 0.25, 0.25, 0.25;
    ( good, 4, small, med, 2, low ) 0.25, 0.25, 0.25, 0.25;
    ( good, 4, small, med, 2, med ) 0.25, 0.25, 0.25, 0.25;
    ( good, 4, small, med, 4, high ) 0.0, 1.0, 0.0, 0.0;
    ( good, 4, small, med, 4, low ) 0.25, 0.25, 0.25, 0.25;
    ( good, 4, small, med, 4, med ) 0.25, 0.25, 0.25, 0.25;
    ( good, 4, small, med, more, high ) 0.0, 1.0, 0.0, 0.0;
    ( good, 4, small, med, more, low ) 0.25, 0.25, 0.25, 0.25;
    ( good, 4, small, med, more, med ) 0.25, 0.25, 0.25, 0.25;
    ( good, 4, small, vhigh, 2, high ) 0.25, 0.25, 0.25, 0.25;
    ( good, 4, small, vhigh, 2, low ) 0.25, 0.25, 0.25, 0.25;
    ( good, 4, small, vhigh, 2, med ) 0.25, 0.25, 0.25, 0.25;
    ( good, 4, small, vhigh, 4, high ) 0.25, 0.25, 0.25, 0.25;
    ( good, 4, small, vhigh, 4, low ) 0.25, 0.25, 0.25, 0.25;
    ( good, 4, small, vhigh, 4, med ) 0.25, 0.25, 0.25, 0.25;
    ( good, 4, small, vhigh, more, high ) 0.25, 0.25, 0.25, 0.25;
    ( good, 4, small, vhigh, more, low ) 0.25, 0.25, 0.25, 0.25;
    ( good, 4, small, vhigh, more, med ) 0.25, 0.25, 0.25, 0.25;
    ( good, 5more, big, high, 2, high ) 0.25, 0.25, 0.25, 0.25;
    ( good, 5more, big, high, 2, low ) 0.25, 0.25, 0.25, 0.25;
    ( good, 5more, big, high, 2, med ) 0.25, 0.25, 0.25, 0.25;
    ( good, 5more, big, high, 4, high ) 0.25, 0.25, 0.25, 0.25;
    ( good, 5more, big, high, 4, low ) 0.25, 0.25, 0.25, 0.25;
    ( good, 5more, big, high, 4, med ) 0.25, 0.25, 0.25, 0.25;
    ( good, 5more, big, high, more, high ) 0.25, 0.25, 0.25, 0.25;
    ( good, 5more, big, high, more, low ) 0.25, 0.25, 0.25, 0.25;
    ( good, 5more, big, high, more, med ) 0.25, 0.25, 0.25, 0.25;
    ( good, 5more, big, low, 2, high ) 0.25, 0.25, 0.25, 0.25;
    ( good, 5more, big, low, 2, low ) 0.25, 0.25, 0.25, 0.25;
    ( good, 5more, big, low, 2, med ) 0.25, 0.25, 0.25, 0.25;
    ( good, 5more, big, low, 4, high ) 0.25, 0.25, 0.25, 0.25;
    ( good, 5more, big, low, 4, low ) 0.25, 0.25, 0.25, 0.25;
    ( good, 5more, big, low, 4, med ) 0.0, 0.5, 0.5, 0.0;
    ( good, 5more, big, low, more, high ) 0.25, 0.25, 0.25, 0.25;
    ( good, 5more, big, low, more, low ) 0.25, 0.25, 0.25, 0.25;
    ( good, 5more, big, low, more, med ) 0.0, 0.5, 0.5, 0.0;
    ( good, 5more, big, med, 2, high ) 0.25, 0.25, 0.25, 0.25;
    ( good, 5more, big, med, 2, low ) 0.25, 0.25, 0.25, 0.25;
    ( good, 5more, big, med, 2, med ) 0.25, 0.25, 0.25, 0.25;
    ( good, 5more, big, med, 4, high ) 0.25, 0.25, 0.25, 0.25;
    ( good, 5more, big, med, 4, low ) 0.25, 0.25, 0.25, 0.25;
    ( good, 5more, big, med, 4, med ) 0.0, 1.0, 0.0, 0.0;
    ( good, 5more, big, med, more, high ) 0.25, 0.25, 0.25, 0.25;
    ( good, 5more, big, med, more, low ) 0.25, 0.25, 0.25, 0.25;
    ( good, 5more, big, med, more, med ) 0.0, 1.0, 0.0, 0.0;
    ( good, 5more, big, vhigh, 2, high ) 0.25, 0.25, 0.25, 0.25;
    ( good, 5more, big, vhigh, 2, low ) 0.25, 0.25, 0.25, 0.25;
    ( good, 5more, big, vhigh, 2, med ) 0.25, 0.25, 0.25, 0.25;
    ( good, 5more, big, vhigh, 4, high ) 0.25, 0.25, 0.25, 0.25;
    ( good, 5more, big, vhigh, 4, low ) 0.25, 0.25, 0.25, 0.25;
    ( good, 5more, big, vhigh, 4, med ) 0.25, 0.25, 0.25, 0.25;
    ( good, 5more, big, vhigh, more, high ) 0.25, 0.25, 0.25, 0.25;
    ( good, 5more, big, vhigh, more, low ) 0.25, 0.25, 0.25, 0.25;
    ( good, 5more, big, vhigh, more, med ) 0.25, 0.25, 0.25, 0.25;
    ( good, 5more, med, high, 2, high ) 0.25, 0.25, 0.25, 0.25;
    ( good, 5more, med, high, 2, low ) 0.25, 0.25, 0.25, 0.25;
    ( good, 5more, med, high, 2, med ) 0.25, 0.25, 0.25, 0.25;
    ( good, 5more, med, high, 4, high ) 0.25, 0.25, 0.25, 0.25;
    ( good, 5more, med, high, 4, low ) 0.25, 0.25, 0.25, 0.25;
    ( good, 5more, med, high, 4, med ) 0.25, 0.25, 0.25, 0.25;
    ( good, 5more, med, high, more, high ) 0.25, 0.25, 0.25, 0.25;
    ( good, 5more, med, high, more, low ) 0.25, 0.25, 0.25, 0.25;
    ( good, 5more, med, high, more, med ) 0.25, 0.25, 0.25, 0.25;
    ( good, 5more, med, low, 2, high ) 0.25, 0.25, 0.25, 0.25;
    ( good, 5more, med, low, 2, low ) 0.25, 0.25, 0.25, 0.25;
    ( good, 5more, med, low, 2, med ) 0.25, 0.25, 0.25, 0.25;
    ( good, 5more, med, low, 4, high ) 0.25, 0.25, 0.25, 0.25;
    ( good, 5more, med, low, 4, low ) 0.25, 0.25, 0.25, 0.25;
    ( good, 5more, med, low, 4, med ) 0.0, 0.5, 0.5, 0.0;
    ( good, 5more, med, low, more, high ) 0.25, 0.25, 0.25, 0.25;
    ( good, 5more, med, low, more, low ) 0.25, 0.25, 0.25, 0.25;
    ( good, 5more, med, low, more, med ) 0.0, 0.5, 0.5, 0.0;
    ( good, 5more, med, med, 2, high ) 0.25, 0.25, 0.25, 0.25;
    ( good, 5more, med, med, 2, low ) 0.25, 0.25, 0.25, 0.25;
    ( good, 5more, med, med, 2, med ) 0.25, 0.25, 0.25, 0.25;
    ( good, 5more, med, med, 4, high ) 0.25, 0.25, 0.25, 0.25;
    ( good, 5more, med, med, 4, low ) 0.25, 0.25, 0.25, 0.25;
    ( good, 5more, med, med, 4, med ) 0.0, 1.0, 0.0, 0.0;
    ( good, 5more, med, med, more, high ) 0.25, 0.25, 0.25, 0.25;
    ( good, 5more, med, med, more, low ) 0.25, 0.25, 0.25, 0.25;
    ( good, 5more, med, med, more, med ) 0.0, 1.0, 0.0, 0.0;
    ( good, 5more, med, vhigh, 2, high ) 0.25, 0.25, 0.25, 0.25;
    ( good, 5more, med, vhigh, 2, low ) 0.25, 0.25, 0.25, 0.25;
    ( good, 5more, med, vhigh, 2, med ) 0.25, 0.25, 0.25, 0.25;
    ( good, 5more, med, vhigh, 4, high ) 0.25, 0.25, 0.25, 0.25;
    ( good, 5more, med, vhigh, 4, low ) 0.25, 0.25, 0.25, 0.25;
    ( good, 5more, med, vhigh, 4, med ) 0.25, 0.25, 0.25, 0.25;
    ( good, 5more, med, vhigh, more, high ) 0.25, 0.25, 0.25, 0.25;
    ( good, 5more, med, vhigh, more, low ) 0.25, 0.25, 0.25, 0.25;
    ( good, 5more, med, vhigh, more, med ) 0.25, 0.25, 0.25, 0.25;
    ( good, 5more, small, high, 2, high ) 0.25, 0.25, 0.25, 0.25;
    ( good, 5more, small, high, 2, low ) 0.25, 0.25, 0.25, 0.25;
    ( good, 5more, small, high, 2, med ) 0.25, 0.25, 0.25, 0.25;
    ( good, 5more, small, high, 4, high ) 0.25, 0.25, 0.25, 0.25;
    ( good, 5more, small, high, 4, low ) 0.25, 0.25, 0.25, 0.25;
    ( good, 5more, small, high, 4, med ) 0.25, 0.25, 0.25, 0.25;
    ( good, 5more, small, high, more, high ) 0.25, 0.25, 0.25, 0.25;
    ( good, 5more, small, high, more, low ) 0.25, 0.25, 0.25, 0.25;
    ( good, 5more, small, high, more, med ) 0.25, 0.25, 0.25, 0.25;
    ( good, 5more, small, low, 2, high ) 0.25, 0.25, 0.25, 0.25;
    ( good, 5more, small, low, 2, low ) 0.25, 0.25, 0.25, 0.25;
    ( good, 5more, small, low, 2, med ) 0.25, 0.25, 0.25, 0.25;
    ( good, 5more, small, low, 4, high ) 0.0, 0.5, 0.5, 0.0;
    ( good, 5more, small, low, 4, low ) 0.25, 0.25, 0.25, 0.25;
    ( good, 5more, small, low, 4, med ) 0.25, 0.25, 0.25, 0.25;
    ( good, 5more, small, low, more, high ) 0.0, 0.5, 0.5, 0.0;
    ( good, 5more, small, low, more, low ) 0.25, 0.25, 0.25, 0.25;
    ( good, 5more, small, low, more, med ) 0.25, 0.25, 0.25, 0.25;
    ( good, 5more, small, med, 2, high ) 0.25, 0.25, 0.25, 0.25;
    ( good, 5more, small, med, 2, low ) 0.25, 0.25, 0.25, 0.25;
    ( good, 5more, small, med, 2, med ) 0.25, 0.25, 0.25, 0.25;
    ( good, 5more, small, med, 4, high ) 0.0, 1.0, 0.0, 0.0;
    ( good, 5more, small, med, 4, low ) 0.25, 0.25, 0.25, 0.25;
    ( good, 5more, small, med, 4, med ) 0.25, 0.25, 0.25, 0.25;
    ( good, 5more, small, med, more, high ) 0.0, 1.0, 0.0, 0.0;
    ( good, 5more, small, med, more, low ) 0.25, 0.25, 0.25, 0.25;
    ( good, 5more, small, med, more, med ) 0.25, 0.25, 0.25, 0.25;
    ( good, 5more, small, vhigh, 2, high ) 0.25, 0.25, 0.25, 0.25;
    ( good, 5more, small, vhigh, 2, low ) 0.25, 0.25, 0.25, 0.25;
    ( good, 5more, small, vhigh, 2, med ) 0.25, 0.25, 0.25, 0.25;
    ( good, 5more, small, vhigh, 4, high ) 0.25, 0.25, 0.25, 0.25;
    ( good, 5more, small, vhigh, 4, low ) 0.25, 0.25, 0.25, 0.25;
    ( good, 5more, small, vhigh, 4, med ) 0.25, 0.25, 0.25, 0.25;
    ( good, 5more, small, vhigh, more, high ) 0.25, 0.25, 0.25, 0.25;
    ( good, 5more, small, vhigh, more, low ) 0.25, 0.25, 0.25, 0.25;
    ( good, 5more, small, vhigh, more, med ) 0.25, 0.25, 0.25, 0.25;
    ( unacc, 2, big, high, 2, high ) 0.25, 0.25, 0.25, 0.25;
    ( unacc, 2, big, high, 2, low ) 0.25, 0.25, 0.25, 0.25;
    ( unacc, 2, big, high, 2, med ) 0.25, 0.25, 0.25, 0.25;
    ( unacc, 2, big, high, 4, high ) 0.0, 0.0, 0.0, 1.0;
    ( unacc, 2, big, high, 4, low ) 0.25, 0.25, 0.25, 0.25;
    ( unacc, 2, big, high, 4, med ) 0.0, 0.0, 0.0, 1.0;
    ( unacc, 2, big, high, more, high ) 0.0, 0.0, 0.0, 1.0;
    ( unacc, 2, big, high, more, low ) 0.25, 0.25, 0.25, 0.25;
    ( unacc, 2, big, high, more, med ) 0.0, 0.0, 0.0, 1.0;
    ( unacc, 2, big, low, 2, high ) 0.25, 0.25, 0.25, 0.25;
    ( unacc, 2, big, low, 2, low ) 0.25, 0.25, 0.25, 0.25;
    ( unacc, 2, big, low, 2, med ) 0.25, 0.25, 0.25, 0.25;
    ( unacc, 2, big, low, 4, high ) 0.25, 0.25, 0.25, 0.25;
    ( unacc, 2, big, low, 4, low ) 0.25, 0.25, 0.25, 0.25;
    ( unacc, 2, big, low, 4, med ) 0.25, 0.25, 0.25, 0.25;
    ( unacc, 2, big, low, more, high ) 0.25, 0.25, 0.25, 0.25;
    ( unacc, 2, big, low, more, low ) 0.25, 0.25, 0.25, 0.25;
    ( unacc, 2, big, low, more, med ) 0.25, 0.25, 0.25, 0.25;
    ( unacc, 2, big, med, 2, high ) 0.25, 0.25, 0.25, 0.25;
    ( unacc, 2, big, med, 2, low ) 0.25, 0.25, 0.25, 0.25;
    ( unacc, 2, big, med, 2, med ) 0.25, 0.25, 0.25, 0.25;
    ( unacc, 2, big, med, 4, high ) 0.25, 0.25, 0.25, 0.25;
    ( unacc, 2, big, med, 4, low ) 0.25, 0.25, 0.25, 0.25;
    ( unacc, 2, big, med, 4, med ) 0.25, 0.25, 0.25, 0.25;
    ( unacc, 2, big, med, more, high ) 0.25, 0.25, 0.25, 0.25;
    ( unacc, 2, big, med, more, low ) 0.25, 0.25, 0.25, 0.25;
    ( unacc, 2, big, med, more, med ) 0.25, 0.25, 0.25, 0.25;
    ( unacc, 2, big, vhigh, 2, high ) 0.25, 0.25, 0.25, 0.25;
    ( unacc, 2, big, vhigh, 2, low ) 0.25, 0.25, 0.25, 0.25;
    ( unacc, 2, big, vhigh, 2, med ) 0.25, 0.25, 0.25, 0.25;
    ( unacc, 2, big, vhigh, 4, high ) 0.5, 0.0, 0.0, 0.5;
    ( unacc, 2, big, vhigh, 4, low ) 0.25, 0.25, 0.25, 0.25;
    ( unacc, 2, big, vhigh, 4, med ) 0.5, 0.0, 0.0, 0.5;
    ( unacc, 2, big, vhigh, more, high ) 0.5, 0.0, 0.0, 0.5;
    ( unacc, 2, big, vhigh, more, low ) 0.25, 0.25, 0.25, 0.25;
    ( unacc, 2, big, vhigh, more, med ) 0.5, 0.0, 0.0, 0.5;
    ( unacc, 2, med, high, 2, high ) 0.25, 0.25, 0.25, 0.25;
    ( unacc, 2, med, high, 2, low ) 0.25, 0.25, 0.25, 0.25;
    ( unacc, 2, med, high, 2, med ) 0.25, 0.25, 0.25, 0.25;
    ( unacc, 2, med, high, 4, high ) 0.0, 0.0, 0.0, 1.0;
    ( unacc, 2, med, high, 4, low ) 0.25, 0.25, 0.25, 0.25;
    ( unacc, 2, med, high, 4, med ) 0.3333333333333333, 0.0, 0.3333333333333333, 0.3333333333333333;
    ( unacc, 2, med, high, more, high ) 0.0, 0.0, 0.0, 1.0;
    ( unacc, 2, med, high, more, low ) 0.25, 0.25, 0.25, 0.25;
    ( unacc, 2, med, high, more, med ) 0.3333333333333333, 0.0, 0.3333333333333333, 0.3333333333333333;
    ( unacc, 2, med, low, 2, high ) 0.25, 0.25, 0.25, 0.25;
    ( unacc, 2, med, low, 2, low ) 0.25, 0.25, 0.25, 0.25;
    ( unacc, 2, med, low, 2, med ) 0.25, 0.25, 0.25, 0.25;
    ( unacc, 2, med, low, 4, high ) 0.25, 0.25, 0.25, 0.25;
    ( unacc, 2, med, low, 4, low ) 0.25, 0.25, 0.25, 0.25;
    ( unacc, 2, med, low, 4, med ) 0.5, 0.0, 0.0, 0.5;
    ( unacc, 2, med, low, more, high ) 0.25, 0.25, 0.25, 0.25;
    ( unacc, 2, med, low, more, low ) 0.25, 0.25, 0.25, 0.25;
    ( unacc, 2, med, low, more, med ) 0.5, 0.0, 0.0, 0.5;
    ( unacc, 2, med, med, 2, high ) 0.25, 0.25, 0.25, 0.25;
    ( unacc, 2, med, med, 2, low ) 0.25, 0.25, 0.25, 0.25;
    ( unacc, 2, med, med, 2, med ) 0.25, 0.25, 0.25, 0.25;
    ( unacc, 2, med, med, 4, high ) 0.25, 0.25, 0.25, 0.25;
    ( unacc, 2, med, med, 4, low ) 0.25, 0.25, 0.25, 0.25;
    ( unacc, 2, med, med, 4, med ) 0.5, 0.0, 0.0, 0.5;
    ( unacc, 2, med, med, more, high ) 0.25, 0.25, 0.25, 0.25;
    ( unacc, 2, med, med, more, low ) 0.25, 0.25, 0.25, 0.25;
    ( unacc, 2, med, med, more, med ) 0.5, 0.0, 0.0, 0.5;
    ( unacc, 2, med, vhigh, 2, high ) 0.25, 0.25, 0.25, 0.25;
    ( unacc, 2, med, vhigh, 2, low ) 0.25, 0.25, 0.25, 0.25;
    ( unacc, 2, med, vhigh, 2, med ) 0.25, 0.25, 0.25, 0.25;
    ( unacc, 2, med, vhigh, 4, high ) 0.5, 0.0, 0.0, 0.5;
    ( unacc, 2, med, vhigh, 4, low ) 0.25, 0.25, 0.25, 0.25;
    ( unacc, 2, med, vhigh, 4, med ) 0.25, 0.25, 0.25, 0.25;
    ( unacc, 2, med, vhigh, more, high ) 0.5, 0.0, 0.0, 0.5;
    ( unacc, 2, med, vhigh, more, low ) 0.25, 0.25, 0.25, 0.25;
    ( unacc, 2, med, vhigh, more, med ) 0.25, 0.25, 0.25, 0.25;
    ( unacc, 2, small, high, 2, high ) 0.25, 0.25, 0.25, 0.25;
    ( unacc, 2, small, high, 2, low ) 0.25, 0.25, 0.25, 0.25;
    ( unacc, 2, small, high, 2, med ) 0.25, 0.25, 0.25, 0.25;
    ( unacc, 2, small, high, 4, high ) 0.0, 0.0, 0.0, 1.0;
    ( unacc, 2, small, high, 4, low ) 0.25, 0.25, 0.25, 0.25;
    ( unacc, 2, small, high, 4, med ) 0.3333333333333333, 0.0, 0.3333333333333333, 0.3333333333333333;
    ( unacc, 2, small, high, more, high ) 0.25, 0.25, 0.25, 0.25;
    ( unacc, 2, small, high, more, low ) 0.25, 0.25, 0.25, 0.25;
    ( unacc, 2, small, high, more, med ) 0.25, 0.25, 0.25, 0.25;
    ( unacc, 2, small, low, 2, high ) 0.25, 0.25, 0.25, 0.25;
    ( unacc, 2, small, low, 2, low ) 0.25, 0.25, 0.25, 0.25;
    ( unacc, 2, small, low, 2, med ) 0.25, 0.25, 0.25, 0.25;
    ( unacc, 2, small, low, 4, high ) 0.25, 0.25, 0.25, 0.25;
    ( unacc, 2, small, low, 4, low ) 0.25, 0.25, 0.25, 0.25;
    ( unacc, 2, small, low, 4, med ) 0.5, 0.0, 0.0, 0.5;
    ( unacc, 2, small, low, more, high ) 0.25, 0.25, 0.25, 0.25;
    ( unacc, 2, small, low, more, low ) 0.25, 0.25, 0.25, 0.25;
    ( unacc, 2, small, low, more, med ) 0.25, 0.25, 0.25, 0.25;
    ( unacc, 2, small, med, 2, high ) 0.25, 0.25, 0.25, 0.25;
    ( unacc, 2, small, med, 2, low ) 0.25, 0.25, 0.25, 0.25;
    ( unacc, 2, small, med, 2, med ) 0.25, 0.25, 0.25, 0.25;
    ( unacc, 2, small, med, 4, high ) 0.25, 0.25, 0.25, 0.25;
    ( unacc, 2, small, med, 4, low ) 0.25, 0.25, 0.25, 0.25;
    ( unacc, 2, small, med, 4, med ) 0.5, 0.0, 0.0, 0.5;
    ( unacc, 2, small, med, more, high ) 0.25, 0.25, 0.25, 0.25;
    ( unacc, 2, small, med, more, low ) 0.25, 0.25, 0.25, 0.25;
    ( unacc, 2, small, med, more, med ) 0.25, 0.25, 0.25, 0.25;
    ( unacc, 2, small, vhigh, 2, high ) 0.25, 0.25, 0.25, 0.25;
    ( unacc, 2, small, vhigh, 2, low ) 0.25, 0.25, 0.25, 0.25;
    ( unacc, 2, small, vhigh, 2, med ) 0.25, 0.25, 0.25, 0.25;
    ( unacc, 2, small, vhigh, 4, high ) 0.5, 0.0, 0.0, 0.5;
    ( unacc, 2, small, vhigh, 4, low ) 0.25, 0.25, 0.25, 0.25;
    ( unacc, 2, small, vhigh, 4, med ) 0.25, 0.25, 0.25, 0.25;
    ( unacc, 2, small, vhigh, more, high ) 0.25, 0.25, 0.25, 0.25;
    ( unacc, 2, small, vhigh, more, low ) 0.25, 0.25, 0.25, 0.25;
    ( unacc, 2, small, vhigh, more, med ) 0.25, 0.25, 0.25, 0.25;
    ( unacc, 3, big, high, 2, high ) 0.25, 0.25, 0.25, 0.25;
    ( unacc, 3, big, high, 2, low ) 0.25, 0.25, 0.25, 0.25;
    ( unacc, 3, big, high, 2, med ) 0.25, 0.25, 0.25, 0.25;
    ( unacc, 3, big, high, 4, high ) 0.0, 0.0, 0.0, 1.0;
    ( unacc, 3, big, high, 4, low ) 0.25, 0.25, 0.25, 0.25;
    ( unacc, 3, big, high, 4, med ) 0.0, 0.0, 0.0, 1.0;
    ( unacc, 3, big, high, more, high ) 0.0, 0.0, 0.0, 1.0;
    ( unacc, 3, big, high, more, low ) 0.25, 0.25, 0.25, 0.25;
    ( unacc, 3, big, high, more, med ) 0.0, 0.0, 0.0, 1.0;
    ( unacc, 3, big, low, 2, high ) 0.25, 0.25, 0.25, 0.25;
    ( unacc, 3, big, low, 2, low ) 0.25, 0.25, 0.25, 0.25;
    ( unacc, 3, big, low, 2, med ) 0.25, 0.25, 0.25, 0.25;
    ( unacc, 3, big, low, 4, high ) 0.25, 0.25, 0.25, 0.25;
    ( unacc, 3, big, low, 4, low ) 0.25, 0.25, 0.25, 0.25;
    ( unacc, 3, big, low, 4, med ) 0.25, 0.25, 0.25, 0.25;
    ( unacc, 3, big, low, more, high ) 0.25, 0.25, 0.25, 0.25;
    ( unacc, 3, big, low, more, low ) 0.25, 0.25, 0.25, 0.25;
    ( unacc, 3, big, low, more, med ) 0.25, 0.25, 0.25, 0.25;
    ( unacc, 3, big, med, 2, high ) 0.25, 0.25, 0.25, 0.25;
    ( unacc, 3, big, med, 2, low ) 0.25, 0.25, 0.25, 0.25;
    ( unacc, 3, big, med, 2, med ) 0.25, 0.25, 0.25, 0.25;
    ( unacc, 3, big, med, 4, high ) 0.25, 0.25, 0.25, 0.25;
    ( unacc, 3, big, med, 4, low ) 0.25, 0.25, 0.25, 0.25;
    ( unacc, 3, big, med, 4, med ) 0.25, 0.25, 0.25, 0.25;
    ( unacc, 3, big, med, more, high ) 0.25, 0.25, 0.25, 0.25;
    ( unacc, 3, big, med, more, low ) 0.25, 0.25, 0.25, 0.25;
    ( unacc, 3, big, med, more, med ) 0.25, 0.25, 0.25, 0.25;
    ( unacc, 3, big, vhigh, 2, high ) 0.25, 0.25, 0.25, 0.25;
    ( unacc, 3, big, vhigh, 2, low ) 0.25, 0.25, 0.25, 0.25;
    ( unacc, 3, big, vhigh, 2, med ) 0.25, 0.25, 0.25, 0.25;
    ( unacc, 3, big, vhigh, 4, high ) 0.5, 0.0, 0.0, 0.5;
    ( unacc, 3, big, vhigh, 4, low ) 0.25, 0.25, 0.25, 0.25;
    ( unacc, 3, big, vhigh, 4, med ) 0.5, 0.0, 0.0, 0.5;
    ( unacc, 3, big, vhigh, more, high ) 0.5, 0.0, 0.0, 0.5;
    ( unacc, 3, big, vhigh, more, low ) 0.25, 0.25, 0.25, 0.25;
    ( unacc, 3, big, vhigh, more, med ) 0.5, 0.0, 0.0, 0.5;
    ( unacc, 3, med, high, 2, high ) 0.25, 0.25, 0.25, 0.25;
    ( unacc, 3, med, high, 2, low ) 0.25, 0.25, 0.25, 0.25;
    ( unacc, 3, med, high, 2, med ) 0.25, 0.25, 0.25, 0.25;
    ( unacc, 3, med, high, 4, high ) 0.0, 0.0, 0.0, 1.0;
    ( unacc, 3, med, high, 4, low ) 0.25, 0.25, 0.25, 0.25;
    ( unacc, 3, med, high, 4, med ) 0.3333333333333333, 0.0, 0.3333333333333333, 0.3333333333333333;
    ( unacc, 3, med, high, more, high ) 0.0, 0.0, 0.0, 1.0;
    ( unacc, 3, med, high, more, low ) 0.25, 0.25, 0.25, 0.25;
    ( unacc, 3, med, high, more, med ) 0.0, 0.0, 0.0, 1.0;
    ( unacc, 3, med, low, 2, high ) 0.25, 0.25, 0.25, 0.25;
    ( unacc, 3, med, low, 2, low ) 0.25, 0.25, 0.25, 0.25;
    ( unacc, 3, med, low, 2, med ) 0.25, 0.25, 0.25, 0.25;
    ( unacc, 3, med, low, 4, high ) 0.25, 0.25, 0.25, 0.25;
    ( unacc, 3, med, low, 4, low ) 0.25, 0.25, 0.25, 0.25;
    ( unacc, 3, med, low, 4, med ) 0.5, 0.0, 0.0, 0.5;
    ( unacc, 3, med, low, more, high ) 0.25, 0.25, 0.25, 0.25;
    ( unacc, 3, med, low, more, low ) 0.25, 0.25, 0.25, 0.25;
    ( unacc, 3, med, low, more, med ) 0.25, 0.25, 0.25, 0.25;
    ( unacc, 3, med, med, 2, high ) 0.25, 0.25, 0.25, 0.25;
    ( unacc, 3, med, med, 2, low ) 0.25, 0.25, 0.25, 0.25;
    ( unacc, 3, med, med, 2, med ) 0.25, 0.25, 0.25, 0.25;
    ( unacc, 3, med, med, 4, high ) 0.25, 0.25, 0.25, 0.25;
    ( unacc, 3, med, med, 4, low ) 0.25, 0.25, 0.25, 0.25;
    ( unacc, 3, med, med, 4, med ) 0.5, 0.0, 0.0, 0.5;
    ( unacc, 3, med, med, more, high ) 0.25, 0.25, 0.25, 0.25;
    ( unacc, 3, med, med, more, low ) 0.25, 0.25, 0.25, 0.25;
    ( unacc, 3, med, med, more, med ) 0.25, 0.25, 0.25, 0.25;
    ( unacc, 3, med, vhigh, 2, high ) 0.25, 0.25, 0.25, 0.25;
    ( unacc, 3, med, vhigh, 2, low ) 0.25, 0.25, 0.25, 0.25;
    ( unacc, 3, med, vhigh, 2, med ) 0.25, 0.25, 0.25, 0.25;
    ( unacc, 3, med, vhigh, 4, high ) 0.5, 0.0, 0.0, 0.5;
    ( unacc, 3, med, vhigh, 4, low ) 0.25, 0.25, 0.25, 0.25;
    ( unacc, 3, med, vhigh, 4, med ) 0.25, 0.25, 0.25, 0.25;
    ( unacc, 3, med, vhigh, more, high ) 0.5, 0.0, 0.0, 0.5;
    ( unacc, 3, med, vhigh, more, low ) 0.25, 0.25, 0.25, 0.25;
    ( unacc, 3, med, vhigh, more, med ) 0.5, 0.0, 0.0, 0.5;
    ( unacc, 3, small, high, 2, high ) 0.25, 0.25, 0.25, 0.25;
    ( unacc, 3, small, high, 2, low ) 0.25, 0.25, 0.25, 0.25;
    ( unacc, 3, small, high, 2, med ) 0.25, 0.25, 0.25, 0.25;
    ( unacc, 3, small, high, 4, high ) 0.0, 0.0, 0.0, 1.0;
    ( unacc, 3, small, high, 4, low ) 0.25, 0.25, 0.25, 0.25;
    ( unacc, 3, small, high, 4, med ) 0.3333333333333333, 0.0, 0.3333333333333333, 0.3333333333333333;
    ( unacc, 3, small, high, more, high ) 0.0, 0.0, 0.0, 1.0;
    ( unacc, 3, small, high, more, low ) 0.25, 0.25, 0.25, 0.25;
    ( unacc, 3, small, high, more, med ) 0.3333333333333333, 0.0, 0.3333333333333333, 0.3333333333333333;
    ( unacc, 3, small, low, 2, high ) 0.25, 0.25, 0.25, 0.25;
    ( unacc, 3, small, low, 2, low ) 0.25, 0.25, 0.25, 0.25;
    ( unacc, 3, small, low, 2, med ) 0.25, 0.25, 0.25, 0.25;
    ( unacc, 3, small, low, 4, high ) 0.25, 0.25, 0.25, 0.25;
    ( unacc, 3, small, low, 4, low ) 0.25, 0.25, 0.25, 0.25;
    ( unacc, 3, small, low, 4, med ) 0.5, 0.0, 0.0, 0.5;
    ( unacc, 3, small, low, more, high ) 0.25, 0.25, 0.25, 0.25;
    ( unacc, 3, small, low, more, low ) 0.25, 0.25, 0.25, 0.25;
    ( unacc, 3, small, low, more, med ) 0.5, 0.0, 0.0, 0.5;
    ( unacc, 3, small, med, 2, high ) 0.25, 0.25, 0.25, 0.25;
    ( unacc, 3, small, med, 2, low ) 0.25, 0.25, 0.25, 0.25;
    ( unacc, 3, small, med, 2, med ) 0.25, 0.25, 0.25, 0.25;
    ( unacc, 3, small, med, 4, high ) 0.25, 0.25, 0.25, 0.25;
    ( unacc, 3, small, med, 4, low ) 0.25, 0.25, 0.25, 0.25;
    ( unacc, 3, small, med, 4, med ) 0.5, 0.0, 0.0, 0.5;
    ( unacc, 3, small, med, more, high ) 0.25, 0.25, 0.25, 0.25;
    ( unacc, 3, small, med, more, low ) 0.25, 0.25, 0.25, 0.25;
    ( unacc, 3, small, med, more, med ) 0.5, 0.0, 0.0, 0.5;
    ( unacc, 3, small, vhigh, 2, high ) 0.25, 0.25, 0.25, 0.25;
    ( unacc, 3, small, vhigh, 2, low ) 0.25, 0.25, 0.25, 0.25;
    ( unacc, 3, small, vhigh, 2, med ) 0.25, 0.25, 0.25, 0.25;
    ( unacc, 3, small, vhigh, 4, high ) 0.5, 0.0, 0.0, 0.5;
    ( unacc, 3, small, vhigh, 4, low ) 0.25, 0.25, 0.25, 0.25;
    ( unacc, 3, small, vhigh, 4, med ) 0.25, 0.25, 0.25, 0.25;
    ( unacc, 3, small, vhigh, more, high ) 0.5, 0.0, 0.0, 0.5;
    ( unacc, 3, small, vhigh, more, low ) 0.25, 0.25, 0.25, 0.25;
    ( unacc, 3, small, vhigh, more, med ) 0.25, 0.25, 0.25, 0.25;
    ( unacc, 4, big, high, 2, high ) 0.25, 0.25, 0.25, 0.25;
    ( unacc, 4, big, high, 2, low ) 0.25, 0.25, 0.25, 0.25;
    ( unacc, 4, big, high, 2, med ) 0.25, 0.25, 0.25, 0.25;
    ( unacc, 4, big, high, 4, high ) 0.0, 0.0, 0.0, 1.0;
    ( unacc, 4, big, high, 4, low ) 0.25, 0.25, 0.25, 0.25;
    ( unacc, 4, big, high, 4, med ) 0.0, 0.0, 0.0, 1.0;
    ( unacc, 4, big, high, more, high ) 0.0, 0.0, 0.0, 1.0;
    ( unacc, 4, big, high, more, low ) 0.25, 0.25, 0.25, 0.25;
    ( unacc, 4, big, high, more, med ) 0.0, 0.0, 0.0, 1.0;
    ( unacc, 4, big, low, 2, high ) 0.25, 0.25, 0.25, 0.25;
    ( unacc, 4, big, low, 2, low ) 0.25, 0.25, 0.25, 0.25;
    ( unacc, 4, big, low, 2, med ) 0.25, 0.25, 0.25, 0.25;
    ( unacc, 4, big, low, 4, high ) 0.25, 0.25, 0.25, 0.25;
    ( unacc, 4, big, low, 4, low ) 0.25, 0.25, 0.25, 0.25;
    ( unacc, 4, big, low, 4, med ) 0.25, 0.25, 0.25, 0.25;
    ( unacc, 4, big, low, more, high ) 0.25, 0.25, 0.25, 0.25;
    ( unacc, 4, big, low, more, low ) 0.25, 0.25, 0.25, 0.25;
    ( unacc, 4, big, low, more, med ) 0.25, 0.25, 0.25, 0.25;
    ( unacc, 4, big, med, 2, high ) 0.25, 0.25, 0.25, 0.25;
    ( unacc, 4, big, med, 2, low ) 0.25, 0.25, 0.25, 0.25;
    ( unacc, 4, big, med, 2, med ) 0.25, 0.25, 0.25, 0.25;
    ( unacc, 4, big, med, 4, high ) 0.25, 0.25, 0.25, 0.25;
    ( unacc, 4, big, med, 4, low ) 0.25, 0.25, 0.25, 0.25;
    ( unacc, 4, big, med, 4, med ) 0.25, 0.25, 0.25, 0.25;
    ( unacc, 4, big, med, more, high ) 0.25, 0.25, 0.25, 0.25;
    ( unacc, 4, big, med, more, low ) 0.25, 0.25, 0.25, 0.25;
    ( unacc, 4, big, med, more, med ) 0.25, 0.25, 0.25, 0.25;
    ( unacc, 4, big, vhigh, 2, high ) 0.25, 0.25, 0.25, 0.25;
    ( unacc, 4, big, vhigh, 2, low ) 0.25, 0.25, 0.25, 0.25;
    ( unacc, 4, big, vhigh, 2, med ) 0.25, 0.25, 0.25, 0.25;
    ( unacc, 4, big, vhigh, 4, high ) 0.5, 0.0, 0.0, 0.5;
    ( unacc, 4, big, vhigh, 4, low ) 0.25, 0.25, 0.25, 0.25;
    ( unacc, 4, big, vhigh, 4, med ) 0.5, 0.0, 0.0, 0.5;
    ( unacc, 4, big, vhigh, more, high ) 0.5, 0.0, 0.0, 0.5;
    ( unacc, 4, big, vhigh, more, low ) 0.25, 0.25, 0.25, 0.25;
    ( unacc, 4, big, vhigh, more, med ) 0.5, 0.0, 0.0, 0.5;
    ( unacc, 4, med, high, 2, high ) 0.25, 0.25, 0.25, 0.25;
    ( unacc, 4, med, high, 2, low ) 0.25, 0.25, 0.25, 0.25;
    ( unacc, 4, med, high, 2, med ) 0.25, 0.25, 0.25, 0.25;
    ( unacc, 4, med, high, 4, high ) 0.0, 0.0, 0.0, 1.0;
    ( unacc, 4, med, high, 4, low ) 0.25, 0.25, 0.25, 0.25;
    ( unacc, 4, med, high, 4, med ) 0.0, 0.0, 0.0, 1.0;
    ( unacc, 4, med, high, more, high ) 0.0, 0.0, 0.0, 1.0;
    ( unacc, 4, med, high, more, low ) 0.25, 0.25, 0.25, 0.25;
    ( unacc, 4, med, high, more, med ) 0.0, 0.0, 0.0, 1.0;
    ( unacc, 4, med, low, 2, high ) 0.25, 0.25, 0.25, 0.25;
    ( unacc, 4, med, low, 2, low ) 0.25, 0.25, 0.25, 0.25;
    ( unacc, 4, med, low, 2, med ) 0.25, 0.25, 0.25, 0.25;
    ( unacc, 4, med, low, 4, high ) 0.25, 0.25, 0.25, 0.25;
    ( unacc, 4, med, low, 4, low ) 0.25, 0.25, 0.25, 0.25;
    ( unacc, 4, med, low, 4, med ) 0.25, 0.25, 0.25, 0.25;
    ( unacc, 4, med, low, more, high ) 0.25, 0.25, 0.25, 0.25;
    ( unacc, 4, med, low, more, low ) 0.25, 0.25, 0.25, 0.25;
    ( unacc, 4, med, low, more, med ) 0.25, 0.25, 0.25, 0.25;
    ( unacc, 4, med, med, 2, high ) 0.25, 0.25, 0.25, 0.25;
    ( unacc, 4, med, med, 2, low ) 0.25, 0.25, 0.25, 0.25;
    ( unacc, 4, med, med, 2, med ) 0.25, 0.25, 0.25, 0.25;
    ( unacc, 4, med, med, 4, high ) 0.25, 0.25, 0.25, 0.25;
    ( unacc, 4, med, med, 4, low ) 0.25, 0.25, 0.25, 0.25;
    ( unacc, 4, med, med, 4, med ) 0.25, 0.25, 0.25, 0.25;
    ( unacc, 4, med, med, more, high ) 0.25, 0.25, 0.25, 0.25;
    ( unacc, 4, med, med, more, low ) 0.25, 0.25, 0.25, 0.25;
    ( unacc, 4, med, med, more, med ) 0.25, 0.25, 0.25, 0.25;
    ( unacc, 4, med, vhigh, 2, high ) 0.25, 0.25, 0.25, 0.25;
    ( unacc, 4, med, vhigh, 2, low ) 0.25, 0.25, 0.25, 0.25;
    ( unacc, 4, med, vhigh, 2, med ) 0.25, 0.25, 0.25, 0.25;
    ( unacc, 4, med, vhigh, 4, high ) 0.5, 0.0, 0.0, 0.5;
    ( unacc, 4, med, vhigh, 4, low ) 0.25, 0.25, 0.25, 0.25;
    ( unacc, 4, med, vhigh, 4, med ) 0.5, 0.0, 0.0, 0.5;
    ( unacc, 4, med, vhigh, more, high ) 0.5, 0.0, 0.0, 0.5;
    ( unacc, 4, med, vhigh, more, low ) 0.25, 0.25, 0.25, 0.25;
    ( unacc, 4, med, vhigh, more, med ) 0.5, 0.0, 0.0, 0.5;
    ( unacc, 4, small, high, 2, high ) 0.25, 0.25, 0.25, 0.25;
    ( unacc, 4, small, high, 2, low ) 0.25, 0.25, 0.25, 0.25;
    ( unacc, 4, small, high, 2, med ) 0.25, 0.25, 0.25, 0.25;
    ( unacc, 4, small, high, 4, high ) 0.0, 0.0, 0.0, 1.0;
    ( unacc, 4, small, high, 4, low ) 0.25, 0.25, 0.25, 0.25;
    ( unacc, 4, small, high, 4, med ) 0.3333333333333333, 0.0, 0.3333333333333333, 0.3333333333333333;
    ( unacc, 4, small, high, more, high ) 0.0, 0.0, 0.0, 1.0;
    ( unacc, 4, small, high, more, low ) 0.25, 0.25, 0.25, 0.25;
    ( unacc, 4, small, high, more, med ) 0.3333333333333333, 0.0, 0.3333333333333333, 0.3333333333333333;
    ( unacc, 4, small, low, 2, high ) 0.25, 0.25, 0.25, 0.25;
    ( unacc, 4, small, low, 2, low ) 0.25, 0.25, 0.25, 0.25;
    ( unacc, 4, small, low, 2, med ) 0.25, 0.25, 0.25, 0.25;
    ( unacc, 4, small, low, 4, high ) 0.25, 0.25, 0.25, 0.25;
    ( unacc, 4, small, low, 4, low ) 0.25, 0.25, 0.25, 0.25;
    ( unacc, 4, small, low, 4, med ) 0.5, 0.0, 0.0, 0.5;
    ( unacc, 4, small, low, more, high ) 0.25, 0.25, 0.25, 0.25;
    ( unacc, 4, small, low, more, low ) 0.25, 0.25, 0.25, 0.25;
    ( unacc, 4, small, low, more, med ) 0.5, 0.0, 0.0, 0.5;
    ( unacc, 4, small, med, 2, high ) 0.25, 0.25, 0.25, 0.25;
    ( unacc, 4, small, med, 2, low ) 0.25, 0.25, 0.25, 0.25;
    ( unacc, 4, small, med, 2, med ) 0.25, 0.25, 0.25, 0.25;
    ( unacc, 4, small, med, 4, high ) 0.25, 0.25, 0.25, 0.25;
    ( unacc, 4, small, med, 4, low ) 0.25, 0.25, 0.25, 0.25;
    ( unacc, 4, small, med, 4, med ) 0.5, 0.0, 0.0, 0.5;
    ( unacc, 4, small, med, more, high ) 0.25, 0.25, 0.25, 0.25;
    ( unacc, 4, small, med, more, low ) 0.25, 0.25, 0.25, 0.25;
    ( unacc, 4, small, med, more, med ) 0.5, 0.0, 0.0, 0.5;
    ( unacc, 4, small, vhigh, 2, high ) 0.25, 0.25, 0.25, 0.25;
    ( unacc, 4, small, vhigh, 2, low ) 0.25, 0.25, 0.25, 0.25;
    ( unacc, 4, small, vhigh, 2, med ) 0.25, 0.25, 0.25, 0.25;
    ( unacc, 4, small, vhigh, 4, high ) 0.5, 0.0, 0.0, 0.5;
    ( unacc, 4, small, vhigh, 4, low ) 0.25, 0.25, 0.25, 0.25;
    ( unacc, 4, small, vhigh, 4, med ) 0.25, 0.25, 0.25, 0.25;
    ( unacc, 4, small, vhigh, more, high ) 0.5, 0.0, 0.0, 0.5;
    ( unacc, 4, small, vhigh, more, low ) 0.25, 0.25, 0.25, 0.25;
    ( unacc, 4, small, vhigh, more, med ) 0.25, 0.25, 0.25, 0.25;
    ( unacc, 5more, big, high, 2, high ) 0.25, 0.25, 0.25, 0.25;
    ( unacc, 5more, big, high, 2, low ) 0.25, 0.25, 0.25, 0.25;
    ( unacc, 5more, big, high, 2, med ) 0.25, 0.25, 0.25, 0.25;
    ( unacc, 5more, big, high, 4, high ) 0.0, 0.0, 0.0, 1.0;
    ( unacc, 5more, big, high, 4, low ) 0.25, 0.25, 0.25, 0.25;
    ( unacc, 5more, big, high, 4, med ) 0.0, 0.0, 0.0, 1.0;
    ( unacc, 5more, big, high, more, high ) 0.0, 0.0, 0.0, 1.0;
    ( unacc, 5more, big, high, more, low ) 0.25, 0.25, 0.25, 0.25;
    ( unacc, 5more, big, high, more, med ) 0.0, 0.0, 0.0, 1.0;
    ( unacc, 5more, big, low, 2, high ) 0.25, 0.25, 0.25, 0.25;
    ( unacc, 5more, big, low, 2, low ) 0.25, 0.25, 0.25, 0.25;
    ( unacc, 5more, big, low, 2, med ) 0.25, 0.25, 0.25, 0.25;
    ( unacc, 5more, big, low, 4, high ) 0.25, 0.25, 0.25, 0.25;
    ( unacc, 5more, big, low, 4, low ) 0.25, 0.25, 0.25, 0.25;
    ( unacc, 5more, big, low, 4, med ) 0.25, 0.25, 0.25, 0.25;
    ( unacc, 5more, big, low, more, high ) 0.25, 0.25, 0.25, 0.25;
    ( unacc, 5more, big, low, more, low ) 0.25, 0.25, 0.25, 0.25;
    ( unacc, 5more, big, low, more, med ) 0.25, 0.25, 0.25, 0.25;
    ( unacc, 5more, big, med, 2, high ) 0.25, 0.25, 0.25, 0.25;
    ( unacc, 5more, big, med, 2, low ) 0.25, 0.25, 0.25, 0.25;
    ( unacc, 5more, big, med, 2, med ) 0.25, 0.25, 0.25, 0.25;
    ( unacc, 5more, big, med, 4, high ) 0.25, 0.25, 0.25, 0.25;
    ( unacc, 5more, big, med, 4, low ) 0.25, 0.25, 0.25, 0.25;
    ( unacc, 5more, big, med, 4, med ) 0.25, 0.25, 0.25, 0.25;
    ( unacc, 5more, big, med, more, high ) 0.25, 0.25, 0.25, 0.25;
    ( unacc, 5more, big, med, more, low ) 0.25, 0.25, 0.25, 0.25;
    ( unacc, 5more, big, med, more, med ) 0.25, 0.25, 0.25, 0.25;
    ( unacc, 5more, big, vhigh, 2, high ) 0.25, 0.25, 0.25, 0.25;
    ( unacc, 5more, big, vhigh, 2, low ) 0.25, 0.25, 0.25, 0.25;
    ( unacc, 5more, big, vhigh, 2, med ) 0.25, 0.25, 0.25, 0.25;
    ( unacc, 5more, big, vhigh, 4, high ) 0.5, 0.0, 0.0, 0.5;
    ( unacc, 5more, big, vhigh, 4, low ) 0.25, 0.25, 0.25, 0.25;
    ( unacc, 5more, big, vhigh, 4, med ) 0.5, 0.0, 0.0, 0.5;
    ( unacc, 5more, big, vhigh, more, high ) 0.5, 0.0, 0.0, 0.5;
    ( unacc, 5more, big, vhigh, more, low ) 0.25, 0.25, 0.25, 0.25;
    ( unacc, 5more, big, vhigh, more, med ) 0.5, 0.0, 0.0, 0.5;
    ( unacc, 5more, med, high, 2, high ) 0.25, 0.25, 0.25, 0.25;
    ( unacc, 5more, med, high, 2, low ) 0.25, 0.25, 0.25, 0.25;
    ( unacc, 5more, med, high, 2, med ) 0.25, 0.25, 0.25, 0.25;
    ( unacc, 5more, med, high, 4, high ) 0.0, 0.0, 0.0, 1.0;
    ( unacc, 5more, med, high, 4, low ) 0.25, 0.25, 0.25, 0.25;
    ( unacc, 5more, med, high, 4, med ) 0.0, 0.0, 0.0, 1.0;
    ( unacc, 5more, med, high, more, high ) 0.0, 0.0, 0.0, 1.0;
    ( unacc, 5more, med, high, more, low ) 0.25, 0.25, 0.25, 0.25;
    ( unacc, 5more, med, high, more, med ) 0.0, 0.0, 0.0, 1.0;
    ( unacc, 5more, med, low, 2, high ) 0.25, 0.25, 0.25, 0.25;
    ( unacc, 5more, med, low, 2, low ) 0.25, 0.25, 0.25, 0.25;
    ( unacc, 5more, med, low, 2, med ) 0.25, 0.25, 0.25, 0.25;
    ( unacc, 5more, med, low, 4, high ) 0.25, 0.25, 0.25, 0.25;
    ( unacc, 5more, med, low, 4, low ) 0.25, 0.25, 0.25, 0.25;
    ( unacc, 5more, med, low, 4, med ) 0.25, 0.25, 0.25, 0.25;
    ( unacc, 5more, med, low, more, high ) 0.25, 0.25, 0.25, 0.25;
    ( unacc, 5more, med, low, more, low ) 0.25, 0.25, 0.25, 0.25;
    ( unacc, 5more, med, low, more, med ) 0.25, 0.25, 0.25, 0.25;
    ( unacc, 5more, med, med, 2, high ) 0.25, 0.25, 0.25, 0.25;
    ( unacc, 5more, med, med, 2, low ) 0.25, 0.25, 0.25, 0.25;
    ( unacc, 5more, med, med, 2, med ) 0.25, 0.25, 0.25, 0.25;
    ( unacc, 5more, med, med, 4, high ) 0.25, 0.25, 0.25, 0.25;
    ( unacc, 5more, med, med, 4, low ) 0.25, 0.25, 0.25, 0.25;
    ( unacc, 5more, med, med, 4, med ) 0.25, 0.25, 0.25, 0.25;
    ( unacc, 5more, med, med, more, high ) 0.25, 0.25, 0.25, 0.25;
    ( unacc, 5more, med, med, more, low ) 0.25, 0.25, 0.25, 0.25;
    ( unacc, 5more, med, med, more, med ) 0.25, 0.25, 0.25, 0.25;
    ( unacc, 5more, med, vhigh, 2, high ) 0.25, 0.25, 0.25, 0.25;
    ( unacc, 5more, med, vhigh, 2, low ) 0.25, 0.25, 0.25, 0.25;
    ( unacc, 5more, med, vhigh, 2, med ) 0.25, 0.25, 0.25, 0.25;
    ( unacc, 5more, med, vhigh, 4, high ) 0.5, 0.0, 0.0, 0.5;
    ( unacc, 5more, med, vhigh, 4, low ) 0.25, 0.25, 0.25, 0.25;
    ( unacc, 5more, med, vhigh, 4, med ) 0.5, 0.0, 0.0, 0.5;
    ( unacc, 5more, med, vhigh, more, high ) 0.5, 0.0, 0.0, 0.5;
    ( unacc, 5more, med, vhigh, more, low ) 0.25, 0.25, 0.25, 0.25;
    ( unacc, 5more, med, vhigh, more, med ) 0.5, 0.0, 0.0, 0.5;
    ( unacc, 5more, small, high, 2, high ) 0.25, 0.25, 0.25, 0.25;
    ( unacc, 5more, small, high, 2, low ) 0.25, 0.25, 0.25, 0.25;
    ( unacc, 5more, small, high, 2, med ) 0.25, 0.25, 0.25, 0.25;
    ( unacc, 5more, small, high, 4, high ) 0.0, 0.0, 0.0, 1.0;
    ( unacc, 5more, small, high, 4, low ) 0.25, 0.25, 0.25, 0.25;
    ( unacc, 5more, small, high, 4, med ) 0.3333333333333333, 0.0, 0.3333333333333333, 0.3333333333333333;
    ( unacc, 5more, small, high, more, high ) 0.0, 0.0, 0.0, 1.0;
    ( unacc, 5more, small, high, more, low ) 0.25, 0.25, 0.25, 0.25;
    ( unacc, 5more, small, high, more, med ) 0.3333333333333333, 0.0, 0.3333333333333333, 0.3333333333333333;
    ( unacc, 5more, small, low, 2, high ) 0.25, 0.25, 0.25, 0.25;
    ( unacc, 5more, small, low, 2, low ) 0.25, 0.25, 0.25, 0.25;
    ( unacc, 5more, small, low, 2, med ) 0.25, 0.25, 0.25, 0.25;
    ( unacc, 5more, small, low, 4, high ) 0.25, 0.25, 0.25, 0.25;
    ( unacc, 5more, small, low, 4, low ) 0.25, 0.25, 0.25, 0.25;
    ( unacc, 5more, small, low, 4, med ) 0.5, 0.0, 0.0, 0.5;
    ( unacc, 5more, small, low, more, high ) 0.25, 0.25, 0.25, 0.25;
    ( unacc, 5more, small, low, more, low ) 0.25, 0.25, 0.25, 0.25;
    ( unacc, 5more, small, low, more, med ) 0.5, 0.0, 0.0, 0.5;
    ( unacc, 5more, small, med, 2, high ) 0.25, 0.25, 0.25, 0.25;
    ( unacc, 5more, small, med, 2, low ) 0.25, 0.25, 0.25, 0.25;
    ( unacc, 5more, small, med, 2, med ) 0.25, 0.25, 0.25, 0.25;
    ( unacc, 5more, small, med, 4, high ) 0.25, 0.25, 0.25, 0.25;
    ( unacc, 5more, small, med, 4, low ) 0.25, 0.25, 0.25, 0.25;
    ( unacc, 5more, small, med, 4, med ) 0.5, 0.0, 0.0, 0.5;
    ( unacc, 5more, small, med, more, high ) 0.25, 0.25, 0.25, 0.25;
    ( unacc, 5more, small, med, more, low ) 0.25, 0.25, 0.25, 0.25;
    ( unacc, 5more, small, med, more, med ) 0.5, 0.0, 0.0, 0.5;
    ( unacc, 5more, small, vhigh, 2, high ) 0.25, 0.25, 0.25, 0.25;
    ( unacc, 5more, small, vhigh, 2, low ) 0.25, 0.25, 0.25, 0.25;
    ( unacc, 5more, small, vhigh, 2, med ) 0.25, 0.25, 0.25, 0.25;
    ( unacc, 5more, small, vhigh, 4, high ) 0.5, 0.0, 0.0, 0.5;
    ( unacc, 5more, small, vhigh, 4, low ) 0.25, 0.25, 0.25, 0.25;
    ( unacc, 5more, small, vhigh, 4, med ) 0.25, 0.25, 0.25, 0.25;
    ( unacc, 5more, small, vhigh, more, high ) 0.5, 0.0, 0.0, 0.5;
    ( unacc, 5more, small, vhigh, more, low ) 0.25, 0.25, 0.25, 0.25;
    ( unacc, 5more, small, vhigh, more, med ) 0.25, 0.25, 0.25, 0.25;
    ( vgood, 2, big, high, 2, high ) 0.25, 0.25, 0.25, 0.25;
    ( vgood, 2, big, high, 2, low ) 0.25, 0.25, 0.25, 0.25;
    ( vgood, 2, big, high, 2, med ) 0.25, 0.25, 0.25, 0.25;
    ( vgood, 2, big, high, 4, high ) 0.0, 1.0, 0.0, 0.0;
    ( vgood, 2, big, high, 4, low ) 0.25, 0.25, 0.25, 0.25;
    ( vgood, 2, big, high, 4, med ) 0.25, 0.25, 0.25, 0.25;
    ( vgood, 2, big, high, more, high ) 0.0, 1.0, 0.0, 0.0;
    ( vgood, 2, big, high, more, low ) 0.25, 0.25, 0.25, 0.25;
    ( vgood, 2, big, high, more, med ) 0.25, 0.25, 0.25, 0.25;
    ( vgood, 2, big, low, 2, high ) 0.25, 0.25, 0.25, 0.25;
    ( vgood, 2, big, low, 2, low ) 0.25, 0.25, 0.25, 0.25;
    ( vgood, 2, big, low, 2, med ) 0.25, 0.25, 0.25, 0.25;
    ( vgood, 2, big, low, 4, high ) 0.0, 0.5, 0.5, 0.0;
    ( vgood, 2, big, low, 4, low ) 0.25, 0.25, 0.25, 0.25;
    ( vgood, 2, big, low, 4, med ) 0.25, 0.25, 0.25, 0.25;
    ( vgood, 2, big, low, more, high ) 0.0, 0.5, 0.5, 0.0;
    ( vgood, 2, big, low, more, low ) 0.25, 0.25, 0.25, 0.25;
    ( vgood, 2, big, low, more, med ) 0.25, 0.25, 0.25, 0.25;
    ( vgood, 2, big, med, 2, high ) 0.25, 0.25, 0.25, 0.25;
    ( vgood, 2, big, med, 2, low ) 0.25, 0.25, 0.25, 0.25;
    ( vgood, 2, big, med, 2, med ) 0.25, 0.25, 0.25, 0.25;
    ( vgood, 2, big, med, 4, high ) 0.0, 0.5, 0.5, 0.0;
    ( vgood, 2, big, med, 4, low ) 0.25, 0.25, 0.25, 0.25;
    ( vgood, 2, big, med, 4, med ) 0.25, 0.25, 0.25, 0.25;
    ( vgood, 2, big, med, more, high ) 0.0, 0.5, 0.5, 0.0;
    ( vgood, 2, big, med, more, low ) 0.25, 0.25, 0.25, 0.25;
    ( vgood, 2, big, med, more, med ) 0.25, 0.25, 0.25, 0.25;
    ( vgood, 2, big, vhigh, 2, high ) 0.25, 0.25, 0.25, 0.25;
    ( vgood, 2, big, vhigh, 2, low ) 0.25, 0.25, 0.25, 0.25;
    ( vgood, 2, big, vhigh, 2, med ) 0.25, 0.25, 0.25, 0.25;
    ( vgood, 2, big, vhigh, 4, high ) 0.25, 0.25, 0.25, 0.25;
    ( vgood, 2, big, vhigh, 4, low ) 0.25, 0.25, 0.25, 0.25;
    ( vgood, 2, big, vhigh, 4, med ) 0.25, 0.25, 0.25, 0.25;
    ( vgood, 2, big, vhigh, more, high ) 0.25, 0.25, 0.25, 0.25;
    ( vgood, 2, big, vhigh, more, low ) 0.25, 0.25, 0.25, 0.25;
    ( vgood, 2, big, vhigh, more, med ) 0.25, 0.25, 0.25, 0.25;
    ( vgood, 2, med, high, 2, high ) 0.25, 0.25, 0.25, 0.25;
    ( vgood, 2, med, high, 2, low ) 0.25, 0.25, 0.25, 0.25;
    ( vgood, 2, med, high, 2, med ) 0.25, 0.25, 0.25, 0.25;
    ( vgood, 2, med, high, 4, high ) 0.25, 0.25, 0.25, 0.25;
    ( vgood, 2, med, high, 4, low ) 0.25, 0.25, 0.25, 0.25;
    ( vgood, 2, med, high, 4, med ) 0.25, 0.25, 0.25, 0.25;
    ( vgood, 2, med, high, more, high ) 0.25, 0.25, 0.25, 0.25;
    ( vgood, 2, med, high, more, low ) 0.25, 0.25, 0.25, 0.25;
    ( vgood, 2, med, high, more, med ) 0.25, 0.25, 0.25, 0.25;
    ( vgood, 2, med, low, 2, high ) 0.25, 0.25, 0.25, 0.25;
    ( vgood, 2, med, low, 2, low ) 0.25, 0.25, 0.25, 0.25;
    ( vgood, 2, med, low, 2, med ) 0.25, 0.25, 0.25, 0.25;
    ( vgood, 2, med, low, 4, high ) 0.25, 0.25, 0.25, 0.25;
    ( vgood, 2, med, low, 4, low ) 0.25, 0.25, 0.25, 0.25;
    ( vgood, 2, med, low, 4, med ) 0.25, 0.25, 0.25, 0.25;
    ( vgood, 2, med, low, more, high ) 0.25, 0.25, 0.25, 0.25;
    ( vgood, 2, med, low, more, low ) 0.25, 0.25, 0.25, 0.25;
    ( vgood, 2, med, low, more, med ) 0.25, 0.25, 0.25, 0.25;
    ( vgood, 2, med, med, 2, high ) 0.25, 0.25, 0.25, 0.25;
    ( vgood, 2, med, med, 2, low ) 0.25, 0.25, 0.25, 0.25;
    ( vgood, 2, med, med, 2, med ) 0.25, 0.25, 0.25, 0.25;
    ( vgood, 2, med, med, 4, high ) 0.25, 0.25, 0.25, 0.25;
    ( vgood, 2, med, med, 4, low ) 0.25, 0.25, 0.25, 0.25;
    ( vgood, 2, med, med, 4, med ) 0.25, 0.25, 0.25, 0.25;
    ( vgood, 2, med, med, more, high ) 0.25, 0.25, 0.25, 0.25;
    ( vgood, 2, med, med, more, low ) 0.25, 0.25, 0.25, 0.25;
    ( vgood, 2, med, med, more, med ) 0.25, 0.25, 0.25, 0.25;
    ( vgood, 2, med, vhigh, 2, high ) 0.25, 0.25, 0.25, 0.25;
    ( vgood, 2, med, vhigh, 2, low ) 0.25, 0.25, 0.25, 0.25;
    ( vgood, 2, med, vhigh, 2, med ) 0.25, 0.25, 0.25, 0.25;
    ( vgood, 2, med, vhigh, 4, high ) 0.25, 0.25, 0.25, 0.25;
    ( vgood, 2, med, vhigh, 4, low ) 0.25, 0.25, 0.25, 0.25;
    ( vgood, 2, med, vhigh, 4, med ) 0.25, 0.25, 0.25, 0.25;
    ( vgood, 2, med, vhigh, more, high ) 0.25, 0.25, 0.25, 0.25;
    ( vgood, 2, med, vhigh, more, low ) 0.25, 0.25, 0.25, 0.25;
    ( vgood, 2, med, vhigh, more, med ) 0.25, 0.25, 0.25, 0.25;
    ( vgood, 2, small, high, 2, high ) 0.25, 0.25, 0.25, 0.25;
    ( vgood, 2, small, high, 2, low ) 0.25, 0.25, 0.25, 0.25;
    ( vgood, 2, small, high, 2, med ) 0.25, 0.25, 0.25, 0.25;
    ( vgood, 2, small, high, 4, high ) 0.25, 0.25, 0.25, 0.25;
    ( vgood, 2, small, high, 4, low ) 0.25, 0.25, 0.25, 0.25;
    ( vgood, 2, small, high, 4, med ) 0.25, 0.25, 0.25, 0.25;
    ( vgood, 2, small, high, more, high ) 0.25, 0.25, 0.25, 0.25;
    ( vgood, 2, small, high, more, low ) 0.25, 0.25, 0.25, 0.25;
    ( vgood, 2, small, high, more, med ) 0.25, 0.25, 0.25, 0.25;
    ( vgood, 2, small, low, 2, high ) 0.25, 0.25, 0.25, 0.25;
    ( vgood, 2, small, low, 2, low ) 0.25, 0.25, 0.25, 0.25;
    ( vgood, 2, small, low, 2, med ) 0.25, 0.25, 0.25, 0.25;
    ( vgood, 2, small, low, 4, high ) 0.25, 0.25, 0.25, 0.25;
    ( vgood, 2, small, low, 4, low ) 0.25, 0.25, 0.25, 0.25;
    ( vgood, 2, small, low, 4, med ) 0.25, 0.25, 0.25, 0.25;
    ( vgood, 2, small, low, more, high ) 0.25, 0.25, 0.25, 0.25;
    ( vgood, 2, small, low, more, low ) 0.25, 0.25, 0.25, 0.25;
    ( vgood, 2, small, low, more, med ) 0.25, 0.25, 0.25, 0.25;
    ( vgood, 2, small, med, 2, high ) 0.25, 0.25, 0.25, 0.25;
    ( vgood, 2, small, med, 2, low ) 0.25, 0.25, 0.25, 0.25;
    ( vgood, 2, small, med, 2, med ) 0.25, 0.25, 0.25, 0.25;
    ( vgood, 2, small, med, 4, high ) 0.25, 0.25, 0.25, 0.25;
    ( vgood, 2, small, med, 4, low ) 0.25, 0.25, 0.25, 0.25;
    ( vgood, 2, small, med, 4, med ) 0.25, 0.25, 0.25, 0.25;
    ( vgood, 2, small, med, more, high ) 0.25, 0.25, 0.25, 0.25;
    ( vgood, 2, small, med, more, low ) 0.25, 0.25, 0.25, 0.25;
    ( vgood, 2, small, med, more, med ) 0.25, 0.25, 0.25, 0.25;
    ( vgood, 2, small, vhigh, 2, high ) 0.25, 0.25, 0.25, 0.25;
    ( vgood, 2, small, vhigh, 2, low ) 0.25, 0.25, 0.25, 0.25;
    ( vgood, 2, small, vhigh, 2, med ) 0.25, 0.25, 0.25, 0.25;
    ( vgood, 2, small, vhigh, 4, high ) 0.25, 0.25, 0.25, 0.25;
    ( vgood, 2, small, vhigh, 4, low ) 0.25, 0.25, 0.25, 0.25;
    ( vgood, 2, small, vhigh, 4, med ) 0.25, 0.25, 0.25, 0.25;
    ( vgood, 2, small, vhigh, more, high ) 0.25, 0.25, 0.25, 0.25;
    ( vgood, 2, small, vhigh, more, low ) 0.25, 0.25, 0.25, 0.25;
    ( vgood, 2, small, vhigh, more, med ) 0.25, 0.25, 0.25, 0.25;
    ( vgood, 3, big, high, 2, high ) 0.25, 0.25, 0.25, 0.25;
    ( vgood, 3, big, high, 2, low ) 0.25, 0.25, 0.25, 0.25;
    ( vgood, 3, big, high, 2, med ) 0.25, 0.25, 0.25, 0.25;
    ( vgood, 3, big, high, 4, high ) 0.0, 1.0, 0.0, 0.0;
    ( vgood, 3, big, high, 4, low ) 0.25, 0.25, 0.25, 0.25;
    ( vgood, 3, big, high, 4, med ) 0.25, 0.25, 0.25, 0.25;
    ( vgood, 3, big, high, more, high ) 0.0, 1.0, 0.0, 0.0;
    ( vgood, 3, big, high, more, low ) 0.25, 0.25, 0.25, 0.25;
    ( vgood, 3, big, high, more, med ) 0.25, 0.25, 0.25, 0.25;
    ( vgood, 3, big, low, 2, high ) 0.25, 0.25, 0.25, 0.25;
    ( vgood, 3, big, low, 2, low ) 0.25, 0.25, 0.25, 0.25;
    ( vgood, 3, big, low, 2, med ) 0.25, 0.25, 0.25, 0.25;
    ( vgood, 3, big, low, 4, high ) 0.0, 0.5, 0.5, 0.0;
    ( vgood, 3, big, low, 4, low ) 0.25, 0.25, 0.25, 0.25;
    ( vgood, 3, big, low, 4, med ) 0.25, 0.25, 0.25, 0.25;
    ( vgood, 3, big, low, more, high ) 0.0, 0.5, 0.5, 0.0;
    ( vgood, 3, big, low, more, low ) 0.25, 0.25, 0.25, 0.25;
    ( vgood, 3, big, low, more, med ) 0.25, 0.25, 0.25, 0.25;
    ( vgood, 3, big, med, 2, high ) 0.25, 0.25, 0.25, 0.25;
    ( vgood, 3, big, med, 2, low ) 0.25, 0.25, 0.25, 0.25;
    ( vgood, 3, big, med, 2, med ) 0.25, 0.25, 0.25, 0.25;
    ( vgood, 3, big, med, 4, high ) 0.0, 0.5, 0.5, 0.0;
    ( vgood, 3, big, med, 4, low ) 0.25, 0.25, 0.25, 0.25;
    ( vgood, 3, big, med, 4, med ) 0.25, 0.25, 0.25, 0.25;
    ( vgood, 3, big, med, more, high ) 0.0, 0.5, 0.5, 0.0;
    ( vgood, 3, big, med, more, low ) 0.25, 0.25, 0.25, 0.25;
    ( vgood, 3, big, med, more, med ) 0.25, 0.25, 0.25, 0.25;
    ( vgood, 3, big, vhigh, 2, high ) 0.25, 0.25, 0.25, 0.25;
    ( vgood, 3, big, vhigh, 2, low ) 0.25, 0.25, 0.25, 0.25;
    ( vgood, 3, big, vhigh, 2, med ) 0.25, 0.25, 0.25, 0.25;
    ( vgood, 3, big, vhigh, 4, high ) 0.25, 0.25, 0.25, 0.25;
    ( vgood, 3, big, vhigh, 4, low ) 0.25, 0.25, 0.25, 0.25;
    ( vgood, 3, big, vhigh, 4, med ) 0.25, 0.25, 0.25, 0.25;
    ( vgood, 3, big, vhigh, more, high ) 0.25, 0.25, 0.25, 0.25;
    ( vgood, 3, big, vhigh, more, low ) 0.25, 0.25, 0.25, 0.25;
    ( vgood, 3, big, vhigh, more, med ) 0.25, 0.25, 0.25, 0.25;
    ( vgood, 3, med, high, 2, high ) 0.25, 0.25, 0.25, 0.25;
    ( vgood, 3, med, high, 2, low ) 0.25, 0.25, 0.25, 0.25;
    ( vgood, 3, med, high, 2, med ) 0.25, 0.25, 0.25, 0.25;
    ( vgood, 3, med, high, 4, high ) 0.25, 0.25, 0.25, 0.25;
    ( vgood, 3, med, high, 4, low ) 0.25, 0.25, 0.25, 0.25;
    ( vgood, 3, med, high, 4, med ) 0.25, 0.25, 0.25, 0.25;
    ( vgood, 3, med, high, more, high ) 0.0, 1.0, 0.0, 0.0;
    ( vgood, 3, med, high, more, low ) 0.25, 0.25, 0.25, 0.25;
    ( vgood, 3, med, high, more, med ) 0.25, 0.25, 0.25, 0.25;
    ( vgood, 3, med, low, 2, high ) 0.25, 0.25, 0.25, 0.25;
    ( vgood, 3, med, low, 2, low ) 0.25, 0.25, 0.25, 0.25;
    ( vgood, 3, med, low, 2, med ) 0.25, 0.25, 0.25, 0.25;
    ( vgood, 3, med, low, 4, high ) 0.25, 0.25, 0.25, 0.25;
    ( vgood, 3, med, low, 4, low ) 0.25, 0.25, 0.25, 0.25;
    ( vgood, 3, med, low, 4, med ) 0.25, 0.25, 0.25, 0.25;
    ( vgood, 3, med, low, more, high ) 0.0, 0.5, 0.5, 0.0;
    ( vgood, 3, med, low, more, low ) 0.25, 0.25, 0.25, 0.25;
    ( vgood, 3, med, low, more, med ) 0.25, 0.25, 0.25, 0.25;
    ( vgood, 3, med, med, 2, high ) 0.25, 0.25, 0.25, 0.25;
    ( vgood, 3, med, med, 2, low ) 0.25, 0.25, 0.25, 0.25;
    ( vgood, 3, med, med, 2, med ) 0.25, 0.25, 0.25, 0.25;
    ( vgood, 3, med, med, 4, high ) 0.25, 0.25, 0.25, 0.25;
    ( vgood, 3, med, med, 4, low ) 0.25, 0.25, 0.25, 0.25;
    ( vgood, 3, med, med, 4, med ) 0.25, 0.25, 0.25, 0.25;
    ( vgood, 3, med, med, more, high ) 0.0, 0.5, 0.5, 0.0;
    ( vgood, 3, med, med, more, low ) 0.25, 0.25, 0.25, 0.25;
    ( vgood, 3, med, med, more, med ) 0.25, 0.25, 0.25, 0.25;
    ( vgood, 3, med, vhigh, 2, high ) 0.25, 0.25, 0.25, 0.25;
    ( vgood, 3, med, vhigh, 2, low ) 0.25, 0.25, 0.25, 0.25;
    ( vgood, 3, med, vhigh, 2, med ) 0.25, 0.25, 0.25, 0.25;
    ( vgood, 3, med, vhigh, 4, high ) 0.25, 0.25, 0.25, 0.25;
    ( vgood, 3, med, vhigh, 4, low ) 0.25, 0.25, 0.25, 0.25;
    ( vgood, 3, med, vhigh, 4, med ) 0.25, 0.25, 0.25, 0.25;
    ( vgood, 3, med, vhigh, more, high ) 0.25, 0.25, 0.25, 0.25;
    ( vgood, 3, med, vhigh, more, low ) 0.25, 0.25, 0.25, 0.25;
    ( vgood, 3, med, vhigh, more, med ) 0.25, 0.25, 0.25, 0.25;
    ( vgood, 3, small, high, 2, high ) 0.25, 0.25, 0.25, 0.25;
    ( vgood, 3, small, high, 2, low ) 0.25, 0.25, 0.25, 0.25;
    ( vgood, 3, small, high, 2, med ) 0.25, 0.25, 0.25, 0.25;
    ( vgood, 3, small, high, 4, high ) 0.25, 0.25, 0.25, 0.25;
    ( vgood, 3, small, high, 4, low ) 0.25, 0.25, 0.25, 0.25;
    ( vgood, 3, small, high, 4, med ) 0.25, 0.25, 0.25, 0.25;
    ( vgood, 3, small, high, more, high ) 0.25, 0.25, 0.25, 0.25;
    ( vgood, 3, small, high, more, low ) 0.25, 0.25, 0.25, 0.25;
    ( vgood, 3, small, high, more, med ) 0.25, 0.25, 0.25, 0.25;
    ( vgood, 3, small, low, 2, high ) 0.25, 0.25, 0.25, 0.25;
    ( vgood, 3, small, low, 2, low ) 0.25, 0.25, 0.25, 0.25;
    ( vgood, 3, small, low, 2, med ) 0.25, 0.25, 0.25, 0.25;
    ( vgood, 3, small, low, 4, high ) 0.25, 0.25, 0.25, 0.25;
    ( vgood, 3, small, low, 4, low ) 0.25, 0.25, 0.25, 0.25;
    ( vgood, 3, small, low, 4, med ) 0.25, 0.25, 0.25, 0.25;
    ( vgood, 3, small, low, more, high ) 0.25, 0.25, 0.25, 0.25;
    ( vgood, 3, small, low, more, low ) 0.25, 0.25, 0.25, 0.25;
    ( vgood, 3, small, low, more, med ) 0.25, 0.25, 0.25, 0.25;
    ( vgood, 3, small, med, 2, high ) 0.25, 0.25, 0.25, 0.25;
    ( vgood, 3, small, med, 2, low ) 0.25, 0.25, 0.25, 0.25;
    ( vgood, 3, small, med, 2, med ) 0.25, 0.25, 0.25, 0.25;
    ( vgood, 3, small, med, 4, high ) 0.25, 0.25, 0.25, 0.25;
    ( vgood, 3, small, med, 4, low ) 0.25, 0.25, 0.25, 0.25;
    ( vgood, 3, small, med, 4, med ) 0.25, 0.25, 0.25, 0.25;
    ( vgood, 3, small, med, more, high ) 0.25, 0.25, 0.25, 0.25;
    ( vgood, 3, small, med, more, low ) 0.25, 0.25, 0.25, 0.25;
    ( vgood, 3, small, med, more, med ) 0.25, 0.25, 0.25, 0.25;
    ( vgood, 3, small, vhigh, 2, high ) 0.25, 0.25, 0.25, 0.25;
    ( vgood, 3, small, vhigh, 2, low ) 0.25, 0.25, 0.25, 0.25;
    ( vgood, 3, small, vhigh, 2, med ) 0.25, 0.25, 0.25, 0.25;
    ( vgood, 3, small, vhigh, 4, high ) 0.25, 0.25, 0.25, 0.25;
    ( vgood, 3, small, vhigh, 4, low ) 0.25, 0.25, 0.25, 0.25;
    ( vgood, 3, small, vhigh, 4, med ) 0.25, 0.25, 0.25, 0.25;
    ( vgood, 3, small, vhigh, more, high ) 0.25, 0.25, 0.25, 0.25;
    ( vgood, 3, small, vhigh, more, low ) 0.25, 0.25, 0.25, 0.25;
    ( vgood, 3, small, vhigh, more, med ) 0.25, 0.25, 0.25, 0.25;
    ( vgood, 4, big, high, 2, high ) 0.25, 0.25, 0.25, 0.25;
    ( vgood, 4, big, high, 2, low ) 0.25, 0.25, 0.25, 0.25;
    ( vgood, 4, big, high, 2, med ) 0.25, 0.25, 0.25, 0.25;
    ( vgood, 4, big, high, 4, high ) 0.0, 1.0, 0.0, 0.0;
    ( vgood, 4, big, high, 4, low ) 0.25, 0.25, 0.25, 0.25;
    ( vgood, 4, big, high, 4, med ) 0.25, 0.25, 0.25, 0.25;
    ( vgood, 4, big, high, more, high ) 0.0, 1.0, 0.0, 0.0;
    ( vgood, 4, big, high, more, low ) 0.25, 0.25, 0.25, 0.25;
    ( vgood, 4, big, high, more, med ) 0.25, 0.25, 0.25, 0.25;
    ( vgood, 4, big, low, 2, high ) 0.25, 0.25, 0.25, 0.25;
    ( vgood, 4, big, low, 2, low ) 0.25, 0.25, 0.25, 0.25;
    ( vgood, 4, big, low, 2, med ) 0.25, 0.25, 0.25, 0.25;
    ( vgood, 4, big, low, 4, high ) 0.0, 0.5, 0.5, 0.0;
    ( vgood, 4, big, low, 4, low ) 0.25, 0.25, 0.25, 0.25;
    ( vgood, 4, big, low, 4, med ) 0.25, 0.25, 0.25, 0.25;
    ( vgood, 4, big, low, more, high ) 0.0, 0.5, 0.5, 0.0;
    ( vgood, 4, big, low, more, low ) 0.25, 0.25, 0.25, 0.25;
    ( vgood, 4, big, low, more, med ) 0.25, 0.25, 0.25, 0.25;
    ( vgood, 4, big, med, 2, high ) 0.25, 0.25, 0.25, 0.25;
    ( vgood, 4, big, med, 2, low ) 0.25, 0.25, 0.25, 0.25;
    ( vgood, 4, big, med, 2, med ) 0.25, 0.25, 0.25, 0.25;
    ( vgood, 4, big, med, 4, high ) 0.0, 0.5, 0.5, 0.0;
    ( vgood, 4, big, med, 4, low ) 0.25, 0.25, 0.25, 0.25;
    ( vgood, 4, big, med, 4, med ) 0.25, 0.25, 0.25, 0.25;
    ( vgood, 4, big, med, more, high ) 0.0, 0.5, 0.5, 0.0;
    ( vgood, 4, big, med, more, low ) 0.25, 0.25, 0.25, 0.25;
    ( vgood, 4, big, med, more, med ) 0.25, 0.25, 0.25, 0.25;
    ( vgood, 4, big, vhigh, 2, high ) 0.25, 0.25, 0.25, 0.25;
    ( vgood, 4, big, vhigh, 2, low ) 0.25, 0.25, 0.25, 0.25;
    ( vgood, 4, big, vhigh, 2, med ) 0.25, 0.25, 0.25, 0.25;
    ( vgood, 4, big, vhigh, 4, high ) 0.25, 0.25, 0.25, 0.25;
    ( vgood, 4, big, vhigh, 4, low ) 0.25, 0.25, 0.25, 0.25;
    ( vgood, 4, big, vhigh, 4, med ) 0.25, 0.25, 0.25, 0.25;
    ( vgood, 4, big, vhigh, more, high ) 0.25, 0.25, 0.25, 0.25;
    ( vgood, 4, big, vhigh, more, low ) 0.25, 0.25, 0.25, 0.25;
    ( vgood, 4, big, vhigh, more, med ) 0.25, 0.25, 0.25, 0.25;
    ( vgood, 4, med, high, 2, high ) 0.25, 0.25, 0.25, 0.25;
    ( vgood, 4, med, high, 2, low ) 0.25, 0.25, 0.25, 0.25;
    ( vgood, 4, med, high, 2, med ) 0.25, 0.25, 0.25, 0.25;
    ( vgood, 4, med, high, 4, high ) 0.0, 1.0, 0.0, 0.0;
    ( vgood, 4, med, high, 4, low ) 0.25, 0.25, 0.25, 0.25;
    ( vgood, 4, med, high, 4, med ) 0.25, 0.25, 0.25, 0.25;
    ( vgood, 4, med, high, more, high ) 0.0, 1.0, 0.0, 0.0;
    ( vgood, 4, med, high, more, low ) 0.25, 0.25, 0.25, 0.25;
    ( vgood, 4, med, high, more, med ) 0.25, 0.25, 0.25, 0.25;
    ( vgood, 4, med, low, 2, high ) 0.25, 0.25, 0.25, 0.25;
    ( vgood, 4, med, low, 2, low ) 0.25, 0.25, 0.25, 0.25;
    ( vgood, 4, med, low, 2, med ) 0.25, 0.25, 0.25, 0.25;
    ( vgood, 4, med, low, 4, high ) 0.0, 0.5, 0.5, 0.0;
    ( vgood, 4, med, low, 4, low ) 0.25, 0.25, 0.25, 0.25;
    ( vgood, 4, med, low, 4, med ) 0.25, 0.25, 0.25, 0.25;
    ( vgood, 4, med, low, more, high ) 0.0, 0.5, 0.5, 0.0;
    ( vgood, 4, med, low, more, low ) 0.25, 0.25, 0.25, 0.25;
    ( vgood, 4, med, low, more, med ) 0.25, 0.25, 0.25, 0.25;
    ( vgood, 4, med, med, 2, high ) 0.25, 0.25, 0.25, 0.25;
    ( vgood, 4, med, med, 2, low ) 0.25, 0.25, 0.25, 0.25;
    ( vgood, 4, med, med, 2, med ) 0.25, 0.25, 0.25, 0.25;
    ( vgood, 4, med, med, 4, high ) 0.0, 0.5, 0.5, 0.0;
    ( vgood, 4, med, med, 4, low ) 0.25, 0.25, 0.25, 0.25;
    ( vgood, 4, med, med, 4, med ) 0.25, 0.25, 0.25, 0.25;
    ( vgood, 4, med, med, more, high ) 0.0, 0.5, 0.5, 0.0;
    ( vgood, 4, med, med, more, low ) 0.25, 0.25, 0.25, 0.25;
    ( vgood, 4, med, med, more, med ) 0.25, 0.25, 0.25, 0.25;
    ( vgood, 4, med, vhigh, 2, high ) 0.25, 0.25, 0.25, 0.25;
    ( vgood, 4, med, vhigh, 2, low ) 0.25, 0.25, 0.25, 0.25;
    ( vgood, 4, med, vhigh, 2, med ) 0.25, 0.25, 0.25, 0.25;
    ( vgood, 4, med, vhigh, 4, high ) 0.25, 0.25, 0.25, 0.25;
    ( vgood, 4, med, vhigh, 4, low ) 0.25, 0.25, 0.25, 0.25;
    ( vgood, 4, med, vhigh, 4, med ) 0.25, 0.25, 0.25, 0.25;
    ( vgood, 4, med, vhigh, more, high ) 0.25, 0.25, 0.25, 0.25;
    ( vgood, 4, med, vhigh, more, low ) 0.25, 0.25, 0.25, 0.25;
    ( vgood, 4, med, vhigh, more, med ) 0.25, 0.25, 0.25, 0.25;
    ( vgood, 4, small, high, 2, high ) 0.25, 0.25, 0.25, 0.25;
    ( vgood, 4, small, high, 2, low ) 0.25, 0.25, 0.25, 0.25;
    ( vgood, 4, small, high, 2, med ) 0.25, 0.25, 0.25, 0.25;
    ( vgood, 4, small, high, 4, high ) 0.25, 0.25, 0.25, 0.25;
    ( vgood, 4, small, high, 4, low ) 0.25, 0.25, 0.25, 0.25;
    ( vgood, 4, small, high, 4, med ) 0.25, 0.25, 0.25, 0.25;
    ( vgood, 4, small, high, more, high ) 0.25, 0.25, 0.25, 0.25;
    ( vgood, 4, small, high, more, low ) 0.25, 0.25, 0.25, 0.25;
